node,0,1,2,3,4,5,6,7,8,9,10,11,12,13,14,15,16,17,18,19,20,21,22,23,24,25,26,27,28,29,30,31,32,33,34,35,36,37,38,39,40,41,42,43,44,45,46,47,48,49,50,51,52,53,54,55,56,57,58,59,60,61,62,63
ASN:ASN0001,0.1835437,-0.4280266,0.12918577,-0.29833645,-0.07832017,-0.083889954,-0.20774673,0.47134706,-0.11688106,0.2734179,-0.10209328,-0.04209515,0.274157,0.12816209,-0.28956288,-0.30117762,0.3675811,0.30210263,-0.2625686,0.37840763,0.23042129,-0.2439017,-0.36570054,0.049203806,0.21709797,0.18883556,0.1559579,-0.180979,0.041560926,0.04989156,-0.11872149,-0.31389323,0.15481305,0.07994414,0.12027911,-0.080931984,0.06923963,-0.13009164,-0.32819042,-0.11100764,-0.21094114,-0.1959555,-0.023930792,0.22299935,0.03125766,0.081582874,0.080167435,-0.21666335,-0.018051162,-0.08856394,0.00722025,0.22426467,-0.06499004,-0.2875174,-0.20144178,-0.28650337,0.09047411,-0.14384088,0.28576565,-0.14461197,-0.3982218,-0.059045322,-0.0054167476,0.007523007
ASN:ASN0002,0.24613369,-0.32848832,0.16358776,-0.35118908,-0.098349914,-0.14573787,-0.13923271,0.2889905,-0.031000718,0.13251957,-0.36400196,-0.16621813,-0.04791729,-0.016890164,-0.32688233,0.17372176,0.22564167,0.20440269,-0.046578,0.17338969,0.1438263,-0.049938165,-0.29498118,0.42318413,0.096668825,-0.08565122,-0.17646286,-0.32000223,-0.07700005,-0.013292828,0.095483534,-0.017438171,-0.077293925,0.14402594,-0.15884514,-0.11909914,0.108026795,0.03282036,0.0066606468,0.05676939,-0.19414105,-0.095925294,0.13752955,0.1919018,-0.24739844,0.1238314,-0.083667554,-0.14904232,-0.5013635,-0.37289172,-0.0069244686,-0.16108559,0.12421789,-0.28900275,-0.36031607,-0.09640445,0.046588857,0.046577454,0.27376607,-0.23205502,-0.09763352,0.035771523,0.15816842,0.15418841
ASN:ASN0003,-0.016353657,0.0454083,0.0757073,-0.32748634,0.086942576,0.06430823,0.13346463,0.28909716,-0.32820073,0.15920635,0.20021528,0.05993925,0.15847169,-0.04535278,-0.24126495,0.030942047,0.18837361,0.18440175,-0.40778676,0.3730072,0.0019006918,-0.157527,-0.57142156,-0.042554453,0.5369191,0.19119672,0.045252956,-0.086363435,-0.07376341,0.10614961,-0.07186781,-0.16883105,0.31129548,-0.16183366,0.015898762,-0.057772424,0.23509297,-0.45548946,-0.33095548,0.02511795,-0.39733216,0.26579127,-0.3537543,0.16231938,0.14046346,-0.045031972,0.03176292,-0.011806152,-0.15278131,-0.3278963,0.06210837,0.52026874,-0.24906152,-0.2722019,-0.1881768,-0.18996903,0.08144751,-0.38911122,0.3228586,-0.33872396,-0.27923223,0.27425605,-0.21992634,-0.015039959
ASN:ASN0004,0.1187039,-0.25103867,0.22164224,-0.50725937,-0.25757238,-0.060313653,-0.30547974,0.3650351,-0.20487678,0.2959573,-0.114149176,0.005154916,-0.03090188,0.049922973,-0.25606415,-0.29354653,0.20717469,0.1880998,-0.26291987,0.2876173,0.24131896,-0.23779559,-0.36083,0.13375635,0.43195203,0.08830243,0.07982762,-0.07058813,0.24415651,0.11493269,-0.054629877,-0.34265226,-0.15306047,0.025183806,0.009760298,-0.10847909,0.20934258,-0.09807767,0.008765436,-0.06085489,-0.22083242,-0.042353652,-0.10655104,0.1088832,0.22003119,0.24246457,-0.027165389,-0.18263406,-0.17576042,-0.111669995,0.23820451,0.41340822,-0.13748628,-0.092137374,-0.21946158,0.02362454,0.0075287535,-0.058050763,0.2456332,-0.12519145,-0.29374343,-0.014692291,0.04092976,-0.23815799
ASN:ASN0005,0.21496657,-0.24673563,0.33532727,-0.11258184,-0.21146579,-0.041389786,-0.11653624,0.05062433,-0.0079412,-0.05686367,-0.23838745,0.02852835,0.22553726,-0.20839877,-0.19223718,-0.13459806,0.31766978,0.3642775,-0.016168522,0.17344338,0.116333105,-0.12230106,-0.45714906,-0.06351309,0.28613648,-0.07293547,-0.0048826397,-0.29017428,-0.28828764,-0.04140948,0.07735736,-0.057072546,-0.08642641,-0.11227888,-0.065187775,-0.06050642,0.22553845,0.030469064,-0.23611197,0.13715911,-0.0072976244,0.108870335,0.042984005,0.08438386,0.022902586,0.24589504,0.10141724,-0.35960993,-0.18998241,-0.25095427,0.014818136,0.15297258,-0.088702425,-0.15119919,-0.22729748,-0.06695101,0.18400072,-0.086045116,0.19617611,-0.18319353,-0.06660671,-0.13992745,0.015695041,-0.16722298
ASN:ASN0006,0.10901958,0.16218024,0.10017364,0.21475613,-0.105730295,-0.08125257,0.2578472,-0.34697762,0.022927001,-0.28649643,0.100444645,0.2367501,0.126875,-0.14164478,0.09988094,-0.046519376,-0.1393029,-0.1336879,0.06556244,-0.15939753,0.015494534,0.11268911,0.16017035,0.04786856,0.02002884,-0.00019608432,-0.02188747,0.102940366,-0.18382563,0.15781844,-0.14170855,0.20501648,-0.020531246,-0.18788536,-0.41928837,-0.13464922,0.44620314,-0.38921824,-0.012343686,0.12794346,-0.3240689,0.02682544,0.20627971,0.17089272,0.017967938,0.61864954,0.024711516,-0.235182,-0.36701363,-0.55831224,0.05542206,0.47937688,-0.3469456,-0.5432513,-0.39573357,-0.13250424,0.14898328,0.18412481,0.44821692,-0.39273074,-0.58914703,0.14788227,0.20597993,0.24347419
ASN:ASN0007,0.07954132,-0.2702887,0.21057394,-0.14063779,-0.061823584,-0.21748255,0.19432993,-0.1418636,-0.0062651103,-0.09674048,0.055607956,0.026915066,0.09295049,-0.114422,-0.2540881,-0.24716008,-0.13615511,0.27084017,-0.079831086,0.09718508,0.024734786,0.028786218,-0.2891935,-0.0328619,0.1439612,0.00073297496,-0.32718965,-0.117080644,-0.054841988,0.11923033,0.01101259,0.17187855,-0.039763253,-0.21469371,-0.04613452,-0.12969694,0.19258434,-0.14712246,-0.17874101,0.03835485,-0.23088253,-0.006366829,0.27450895,0.17149925,0.06817974,0.37852824,-0.030517932,-0.24782854,-0.27027163,-0.39978093,-0.051972844,0.26412794,-0.058603924,-0.2390453,-0.034349352,0.010120852,0.070752576,-0.27376708,0.11313393,-0.28710335,-0.19439346,0.057061344,0.19946977,0.22734071
ASN:ASN0008,-0.01576977,0.03925608,0.16800691,-0.21964486,-0.012988242,0.2418709,-0.07801943,0.45105195,-0.07949576,0.3865165,-0.12644958,0.14463244,0.060411315,0.1262205,-0.30686393,-0.023870144,0.23157075,0.30397862,-0.24318638,0.4772193,0.29931372,-0.12500615,-0.36958066,-0.1745912,0.3078456,-0.20901264,0.32470247,-0.025381949,0.0034757645,0.061649907,-0.15117735,-0.013727005,0.10846967,0.075404346,0.13376221,0.14322108,0.2995002,-0.4105879,-0.29795814,-0.018167624,-0.36430797,0.3294023,-0.2747716,0.014053912,0.016097313,0.18805912,-0.0070864586,-0.24103943,-0.06674208,-0.23984031,-0.00028996545,0.35161212,-0.2264551,-0.040479787,-0.44725266,-0.2314034,0.07448201,-0.19666263,0.250665,-0.33569878,-0.42590278,0.2449221,0.008555709,-0.102261126
ASN:ASN0009,-0.14144616,-0.34608048,0.20628044,-0.15956652,-0.19144185,-0.18735228,0.09557968,0.19405553,-0.3734767,0.059277866,0.06922507,0.19179203,0.24770811,-0.114057146,0.052957468,-0.15517092,0.07318004,0.4516362,-0.5108922,0.5033502,0.09194993,-0.09110677,-0.40458596,0.11444383,0.22455028,0.17011198,-0.18043423,0.06442403,-0.05934411,0.06691938,-0.104355305,-0.16525833,0.1988884,0.11293386,-0.11927458,-0.08598441,-0.12472442,-0.18182936,-0.38440448,0.21723337,-0.3438464,0.10063165,-0.20483239,0.083140865,0.13539541,0.18835576,-0.19092178,-0.35650554,-0.10580666,-0.32247698,-0.08130879,0.13782167,-0.036319286,-0.28291702,-0.008426591,0.013223586,0.1261251,-0.17866695,0.25537112,-0.15598187,-0.26604933,-0.057350434,-0.10795383,0.09587837
ASN:ASN0010,0.030221742,0.005029236,0.25797126,-0.34113073,-0.20805302,0.08842643,-0.052079663,0.10319986,-0.27154464,0.09430737,-0.17349954,-0.12720554,0.06637706,0.071134895,-0.35035217,-0.07431056,0.0009086853,0.14614213,-0.38972908,0.4460998,0.28609645,0.23557912,-0.18161003,0.065669164,0.0031383515,0.25260133,0.28158906,-0.08609464,0.11073689,0.13828091,-0.17177662,0.14863582,0.19301084,0.22331883,0.13577892,0.23133002,0.24231438,-0.32374525,-0.5270697,-0.041587625,-0.022558037,0.00075110403,-0.114398494,0.2551941,0.1731628,-0.019442765,-0.0896686,-0.3564774,-0.22940022,-0.27220502,0.034652013,0.3451164,-0.27576032,-0.4082363,-0.047760118,0.09651383,-0.07910059,-0.09045062,0.22794418,-0.36660782,-0.599138,0.20051691,0.20796303,0.11444248
ASN:ASN0011,0.07933153,-0.37739247,-0.043063913,-0.12764694,-0.21315256,-0.20562392,-0.038304992,0.033029407,-0.15065742,0.0867399,-0.03894781,-0.11397706,-0.10829896,-0.37003723,-0.29047698,-0.17093496,-0.1754841,0.2513401,-0.1535642,0.25140887,0.26061404,0.10394301,-0.11263,0.030111732,-0.001932262,-0.06242947,-0.36438662,-0.14660205,-0.14470805,0.111969896,-0.042860687,0.2092883,-0.0109441625,-0.15044262,-0.24118286,0.086306676,0.10265938,-0.1466806,0.100460134,0.08145776,-0.16419595,-0.21604484,0.17910193,-0.020176651,0.29629847,0.24261035,-0.14465094,-0.09609614,-0.19901997,-0.33257023,0.065077394,0.12319097,-0.047648102,-0.3816643,-0.36656934,0.061840314,-0.028166285,-0.21252418,0.19358279,-0.14214803,-0.3840287,0.031307865,0.01683903,0.11609634
ASN:ASN0012,0.07181924,-0.31589192,0.22631739,-0.110961124,-0.39219192,0.12043074,-0.018349921,-0.094180636,-0.16226819,0.19942403,-0.42322907,-0.16635957,0.16792616,-0.07558656,-0.25222757,-0.33307722,-0.11225727,0.3754582,-0.0984975,0.48178345,0.1016026,-0.32447624,-0.28197137,0.033573575,0.27004293,0.0911945,0.039927054,-0.26023707,0.044367254,-0.12941664,0.039760984,-0.1974479,-0.031160152,-0.21790789,-0.33983,-0.020712743,-0.00681267,-0.14493379,-0.07993915,0.061550237,0.09406699,-0.23304433,0.08776329,0.21817856,0.22021681,0.083474286,-0.1787531,-0.29289824,-0.24896587,-0.0628565,0.14454785,0.48971066,-0.089208044,-0.3626723,-0.28000718,0.09326001,0.211601,0.031212687,-0.016510686,-0.19229661,-0.1829381,-0.015993342,-0.13518983,0.020282244
ASN:ASN0013,0.0020458705,-0.4807336,0.15344533,-0.43725333,-0.09416598,-0.114047155,-0.13382058,0.25624526,-0.18361363,0.15222497,-0.21099667,-0.118785165,0.16387784,0.05583223,-0.28103003,-0.3314382,0.2720707,0.44429576,-0.23399252,0.3522191,0.30082858,-0.11944183,-0.19425963,0.0635806,0.2537923,0.013823982,-0.20835847,-0.17979708,0.15342748,-0.17169291,0.0071358723,-0.024972806,0.075955205,-0.028875796,0.09027605,-0.12424529,-0.1256004,0.011966347,-0.15867907,0.13252263,-0.20674372,-0.19485264,0.101586945,0.3456575,0.2729579,0.11317485,-0.18754084,-0.12982722,-0.077607185,-0.16887495,0.003790407,0.27137533,-0.008591791,-0.30950037,-0.12656677,-0.08153477,0.21194914,-0.2060977,0.23381917,-0.18632779,-0.20307271,0.008553944,-0.15264341,0.027490431
ASN:ASN0014,-0.024700053,-0.12571697,0.10838808,-0.21934469,-0.13585995,0.12473213,-0.16933383,0.13442355,-0.26388127,0.43567434,-0.088491574,0.070463695,0.13185997,-0.022937745,-0.30428427,-0.16964573,0.055872057,0.34450713,-0.19300698,0.23340471,0.14460878,-0.14954251,-0.42404848,-0.12871075,0.32404914,0.102991894,-0.122015245,-0.14396223,0.042572122,0.021857884,0.08284634,-0.12982747,0.13583614,-0.13472222,0.1558843,-0.123957686,0.27919576,-0.32498178,-0.22576162,0.010692921,-0.19840729,0.24322826,-0.2638202,0.14785096,0.124581605,0.14757322,-0.033437286,-0.23956206,-0.08723853,-0.19508334,0.35292268,0.5344072,-0.034152556,-0.25725624,-0.2139301,-0.032840706,0.35066304,-0.08560872,0.06299813,-0.30377498,-0.25110587,0.10559623,-0.008094999,0.05652017
ASN:ASN0015,-0.09435767,0.06896449,0.14476505,0.06423658,-0.35845664,0.10602376,-0.2419208,0.05269534,-0.20697238,0.22515358,-0.27129352,-0.18000627,-0.093565,-0.011655423,-0.35940734,-0.20785235,0.15354088,0.26019973,-0.31872353,0.16595581,0.34081596,-0.13116586,-0.49052247,0.03217776,0.43672407,-0.04223364,0.085284926,-0.17606929,-0.20473443,-0.16321975,-0.0021518534,-0.19474867,0.1251731,-0.275272,0.043880686,0.030908044,0.26022124,0.04279823,-0.42649484,-0.114378065,-0.1383542,0.12667651,0.052724462,0.26017928,-0.041900143,-0.19084965,-0.2655333,-0.40688515,-0.14426126,-0.23731355,0.096176095,0.29504666,-0.22091793,-0.26788065,-0.20466901,0.19968408,0.12371063,-0.12138678,0.2440407,-0.20242876,-0.21360677,0.097279064,0.1485757,-0.13780783
ASN:ASN0016,0.10317574,-0.39445898,0.021583095,-0.23895144,0.013038525,-0.08014047,-0.058737915,-0.082431994,-0.035262965,-0.034713212,-0.09450383,-0.046932545,0.1542168,-0.29971078,-0.17519699,0.031508937,0.28606877,0.06390683,-0.18369141,-0.013761405,0.21885693,-0.3304617,-0.29281205,0.16486259,0.3106839,-0.08708485,-0.07382658,0.030969312,0.020150876,0.31443492,-0.07778788,-0.12405568,-0.107039444,-0.050604362,-0.3461209,-0.14866282,0.23874415,-0.01563467,-0.3436073,0.09747868,-0.27956423,-0.038488604,0.23705022,0.12581964,-0.10254952,0.17309016,0.18734956,-0.22923447,-0.049526688,-0.23596561,-0.022000426,-0.006566379,0.103579685,-0.46013153,-0.23635037,-0.020707019,0.079403765,0.07053102,0.3707057,-0.20056783,-0.1988435,0.1128489,0.12725212,0.22447702
ASN:ASN0017,-0.18409891,-0.18202865,0.06668067,-0.36693996,-0.17457706,0.23735468,-0.30923653,0.22057462,-0.03573618,0.49445704,-0.112308554,-0.23013772,0.020760875,0.020606313,-0.41447392,-0.28636605,0.34055796,0.45511478,-0.28029445,0.6559644,0.27046642,-0.4671302,-0.29679242,-5.7109944e-05,0.40639392,0.3526112,0.041895658,-0.3885338,0.18360147,-0.2332279,-0.1061368,-0.32925585,0.25018552,-0.079432614,-0.044559017,-0.0039915936,-0.026286654,-0.18705623,-0.4630366,0.03720364,-0.16437016,0.06042765,-0.17394131,-0.0022364424,0.2860894,0.015953815,-0.12950508,-0.117941014,-0.14458454,-0.080500856,0.086980686,0.35645196,-0.08753186,-0.35953975,-0.20404032,-0.0021768857,0.24312803,-0.054303978,0.28397855,-0.36137038,-0.23298095,0.07011069,-0.2863298,-0.07415146
ASN:ASN0018,0.2561953,0.05415005,0.35214594,-0.25867137,-0.24745876,0.08201328,-0.19946685,0.0054998873,-0.4246965,0.3074882,-0.18791194,-0.07705945,0.040748984,-0.14343485,-0.366959,-0.06797886,0.042065486,0.17893156,-0.038689338,0.4425324,0.36087576,-0.03517407,-0.29835007,0.19488965,0.22525422,0.056947894,0.08633813,-0.2926139,0.10843583,-0.026669828,-0.07609722,0.0016976892,0.05891426,0.025980545,0.1636449,0.111784086,0.16714978,-0.26922098,-0.2234678,-0.1076621,-0.08109233,-0.12544306,-0.15812568,0.07586824,-0.027419182,-0.056279577,0.06534193,-0.14141601,-0.17180853,-0.27644643,0.2456214,0.11976094,-0.24956928,-0.38366687,-0.3182881,-0.07608972,0.24092086,-0.1260564,0.16776466,-0.26014435,-0.31570083,0.19655046,0.123839974,-0.0094070565
ASN:ASN0019,-0.07260974,-0.1396386,0.12848681,0.0020099252,-0.24581248,0.011558097,-0.20782655,0.12464407,-0.28055114,0.21356928,-0.13232271,-0.09306631,0.024875626,-0.12863097,-0.08941783,-0.29340705,0.054784227,0.36508638,-0.39345887,0.19921377,0.19617704,-0.33853203,-0.19541277,-0.036101274,0.2190148,0.18427113,0.039659098,-0.31394336,-0.10080722,-0.05013488,-0.04431083,-0.12266159,0.003227556,-0.14708905,-0.18170278,-0.042019885,0.020661376,-0.16039711,-0.14033246,-0.027199987,-0.24402857,-0.012682374,0.017621968,-0.117011316,0.23556596,0.23391312,-0.10021665,-0.04696393,-0.10093775,-0.5409005,0.14661476,0.27310112,-0.28291634,-0.36700207,-0.26841417,-0.010925659,0.04995745,-0.0839304,0.17227787,-0.15891053,-0.34471643,0.008266726,-0.13461441,-0.034838326
ASN:ASN0020,-0.04057779,-0.33693305,0.1635242,-0.20970832,0.11908541,0.10402823,0.040644225,0.09062845,-0.09796002,0.19418013,-0.08222521,0.16231167,0.086287245,-0.05225372,-0.21935205,-0.03527544,0.37213445,0.32286876,-0.27072257,0.23899955,0.19565716,-0.09401576,-0.40899733,-0.08899424,0.36000675,0.27220306,0.05993797,-0.22149023,-0.03737347,0.21148427,-0.098383516,-0.2942095,0.31308684,-0.018714948,-0.16880369,-0.16773486,0.07013212,-0.15374224,-0.22870323,0.0130413,-0.26770297,0.05236147,-0.16244663,0.2406743,0.14248455,0.36767843,-0.10626844,-0.3682447,-0.25213206,-0.0110546,-0.0002047708,0.40180722,0.077587485,-0.14474094,-0.10121083,0.0045888657,0.24819645,0.034663763,0.14798681,-0.27913308,-0.29071102,-0.024138512,-0.054043826,-0.043526065
ASN:ASN0021,-0.068215325,-0.046900008,0.33252898,-0.1468581,-0.3554645,0.023350442,-0.40211722,0.03604905,-0.20249479,0.26660055,-0.30998698,0.11003524,-0.055962283,0.017628165,-0.21601675,-0.12898488,0.143895,0.35881808,-0.28215608,0.2798687,0.17438406,-0.03743021,-0.34650943,-0.062082343,0.18890959,0.2794989,0.17188577,-0.008176471,-0.105263464,-0.21050528,-0.023149144,-0.24698825,0.142265,0.1018421,0.1435552,0.049247604,0.17996892,0.07011075,-0.0902432,0.12816858,-0.35201967,0.2280535,-0.2251353,0.2633221,0.12061071,0.31721044,-0.14769492,-0.35804713,-0.062974505,-0.06235801,0.27071697,0.38889265,-0.17793266,-0.24400192,-0.15508837,0.050041474,0.30226487,0.049739968,0.21682392,-0.31261677,-0.28400603,0.11986704,0.13135733,-0.26684996
ASN:ASN0022,0.077658474,-0.070382334,0.11484498,-0.10010675,-0.1769199,-0.12539329,-0.11776009,0.18722351,0.01375008,0.16544847,-0.4073637,-0.066498324,0.094388105,0.120584965,-0.299671,-0.05614287,0.07502647,0.34100485,-0.057138346,0.14974979,0.029809209,-0.11212859,-0.25846282,-0.13013637,0.18823291,-0.1528783,0.015554368,-0.2986857,-0.3256329,-0.27934432,0.056900974,-6.152409e-05,0.01185982,-0.09336635,0.038557317,-0.16389628,0.31514233,-0.010584483,-0.16982879,0.24748921,-0.23181938,0.22602026,0.09312382,0.1455564,0.18772432,0.20609184,-0.26020497,-0.30311552,-0.32577428,-0.3246896,0.043511428,0.2662934,-0.07178398,-0.29139212,-0.12140728,-0.012126123,-0.022244383,-0.13471526,0.2534983,-0.27506343,-0.2853966,0.26724878,0.12493532,-0.107516944
ASN:ASN0023,-0.052629147,-0.12185385,0.2586687,-0.4845117,-0.09159291,0.17440508,-0.12968022,0.20407207,-0.0634207,0.41371647,-0.39137107,-0.1070371,0.18890935,-0.027729735,-0.30134824,-0.03329646,0.27043787,0.4588104,-0.3213235,0.5460184,0.35470265,-0.06632205,-0.5024504,-0.17992589,0.49541542,0.22917113,0.16702567,-0.24464178,0.027095769,-0.24749543,0.027227914,-0.2006029,0.08941188,0.09219271,0.27641237,0.20641515,0.16449265,-0.09039999,-0.42117316,-0.04507306,-0.12059044,0.29079288,-0.1697331,0.44811338,0.09047176,-0.051745333,-0.28568476,-0.24348561,-0.23364583,-0.03500063,0.22341442,0.8133666,-0.10687801,-0.08224406,0.005453537,0.263716,-0.0076461886,-0.30509862,0.15698761,-0.23799631,-0.31672114,0.25723523,0.075185575,-0.21905176
ASN:ASN0024,0.021422494,-0.22227176,0.1439162,-0.3740466,0.07457565,0.14210467,-0.14750502,0.16844037,-0.13080658,0.25183278,-0.12156933,-0.22973633,0.04996375,0.037505936,-0.26214045,-0.056242745,0.19475368,0.4021951,-0.39735004,0.54139245,0.14535515,-0.1336772,-0.4540826,0.12050724,0.4300004,0.29254958,0.23615672,-0.09177627,-0.022861216,0.16380207,-0.119817965,-0.142627,0.13744578,0.04378334,0.20886035,0.06852997,0.23741432,-0.35592106,-0.43069372,-0.0045367857,-0.24884142,0.038256034,-0.37748295,0.13929884,-0.08822909,0.063322686,0.0074589225,-0.37696993,-0.15148045,-0.37405315,-0.07613632,0.30843526,-0.03233844,-0.07067596,0.027979707,-0.22723642,-0.026591402,-0.07325512,0.11876736,-0.2592334,-0.29914966,0.161995,0.04899456,-0.024187792
ASN:ASN0025,-5.7624988e-05,-0.34598613,0.062031034,-0.21052566,-0.08975246,-0.04477509,0.22117244,-0.051543117,-0.01759263,0.10812898,-0.10536008,-0.09874965,0.13327068,-0.06189336,-0.15936804,-0.19905847,0.12083093,0.2520505,-0.18209691,0.36014822,0.14136273,-0.120380774,-0.16635005,0.1494921,0.30726963,0.13939212,-0.06755034,-0.029972805,0.01580355,-0.082349524,-0.006895048,0.08770821,-0.13410755,-0.14088832,-0.07136305,-0.19922772,-0.020500293,-0.19289699,-0.24792024,0.0074261995,-0.020846156,-0.08644254,0.26396757,0.25357112,0.059311353,0.16479056,-0.058518082,-0.33596784,-0.31611615,-0.39421868,0.11002794,0.21367562,-0.23585045,-0.39584848,-0.0770599,-0.029423092,-0.017006537,-0.080973886,0.21180971,-0.29349557,-0.43592194,0.067788914,-0.0011985239,0.15157083
ASN:ASN0026,-0.13198978,-0.18517336,0.28783396,-0.3881197,-0.10427234,0.16536088,0.003541969,0.17922452,-0.40931016,0.06831323,-0.16523227,-0.1452348,0.046989605,-0.033006523,-0.13312954,-0.028882481,0.13115317,0.35671157,-0.26131257,0.30433005,0.36644217,-0.313259,-0.2851996,0.060730897,0.16043909,0.010967502,0.16936022,-0.10979153,0.00047921552,-0.066883795,-0.039858583,0.10218378,-0.059482224,-0.03716563,0.12657213,-0.08634386,0.11780519,-0.3271034,-0.58832973,-0.06563859,-0.016533874,0.06011816,-0.07757089,0.13619812,-0.022578884,-0.24387531,0.003394739,-0.3444197,-0.17968759,-0.28093445,0.27875265,0.039775804,-0.23994952,-0.58669376,-0.25172344,0.14413995,0.20048857,-0.18871658,0.34342957,-0.29683614,-0.5244876,0.24006446,-0.016699694,0.120264284
ASN:ASN0027,-0.1152698,-0.19388224,0.08456545,-0.4841522,-0.11242557,0.15319113,-0.13569719,0.0436182,-0.36517826,0.327315,-0.18476816,0.018910395,0.051624563,-0.1348039,-0.14694504,-0.121335804,0.10925091,0.40858173,-0.20844498,0.5000517,0.2942303,-0.23089017,-0.3196047,-0.15696774,0.3589107,0.07208522,-0.20292196,-0.104571365,0.079834454,-0.04058647,-0.03127197,-0.1769092,-0.07412397,-0.14603084,0.27530766,-0.02352664,0.10821102,-0.33237714,-0.33689806,-0.03182124,-0.1461377,0.1945783,-0.21555494,0.09157495,0.28484824,0.111073524,0.04049231,-0.12590271,0.0037269015,-0.33265135,-0.025565062,0.25245705,-0.10286569,-0.26614782,-0.28020856,0.05129047,0.22178398,-0.25872102,0.10833061,-0.20343904,-0.26170135,0.08036224,-0.19070888,-0.06992261
ASN:ASN0028,-0.20184386,0.011675706,0.1255788,-0.18990554,-0.14479959,0.09690721,-0.27801505,-0.07238534,-0.54153824,0.31364706,-0.02499718,0.051572595,-0.10725071,-0.062915534,-0.4373128,-0.05378684,0.22006777,0.46165967,-0.33257568,0.41269442,0.27121747,-0.033083346,-0.38456604,0.2737597,0.29281163,0.26687345,-0.046239886,-0.07737491,0.15188321,-0.10839236,0.21432622,-0.19262892,0.4173861,0.008048981,0.23106049,-0.12042296,0.010337504,0.08239182,-0.72915465,-0.05125143,-0.24654554,0.14193629,-0.30003062,0.19552852,0.19559424,-0.15198478,-0.15217827,-0.50490177,-0.18513395,-0.2723307,0.18217239,0.026176121,-0.13134116,-0.3795119,-0.14756961,0.0825547,0.2909207,-0.024537075,0.25570226,-0.50789803,-0.2467922,0.049569145,0.09894549,0.049287807
ASN:ASN0029,0.10397063,-0.093073085,0.19527888,-0.40453923,-0.14441894,0.26051116,-0.19947234,0.28191963,-0.26166293,0.40116826,-0.28299654,-0.14354564,-0.09039786,0.20295672,-0.43637457,-0.13599394,0.18099469,0.23586778,-0.25218156,0.38400167,0.20409669,-0.14976543,-0.48059326,-0.16790491,0.259115,0.075707115,0.11194927,-0.059013512,0.027739095,-0.1912232,-0.04127995,-0.11460708,0.1714352,0.055820256,-0.015006673,-0.088667914,0.20171183,-0.009297555,-0.16425024,-0.0046360833,-0.089275956,0.044236068,-0.08241405,0.2643175,0.0076220296,0.12125301,-0.073167115,-0.27301922,-0.16656569,-0.27745625,0.1276884,0.52406126,-0.06896358,-0.2480363,-0.08537848,-0.03583776,0.10774315,0.007992557,0.13760024,-0.325461,-0.15495609,0.12485037,0.021780262,-0.17998117
ASN:ASN0030,0.20325148,-0.23330922,0.2123617,-0.15869285,-0.1699417,-0.29900622,-0.043993086,-0.113288514,0.19666912,-0.14643736,-0.29203704,0.08974168,-0.19655664,-0.25458005,-0.38537565,-0.24549183,-0.054791927,0.15982296,-0.2976222,0.15944888,0.34969872,0.41435415,-0.37914,0.012743688,0.22268793,-0.23223352,-0.22778754,-0.119532235,-0.030471308,0.13561665,-0.09293856,0.28905538,-0.11895767,-0.13185246,-0.120787926,-0.12348351,0.1894633,-0.11550205,0.11046234,0.14417991,-0.14688337,-0.16292611,0.22019883,0.20680219,0.29078192,0.5529359,-0.22353739,-0.13899012,-0.024242274,-0.17601672,-0.12891243,-0.059029758,0.04144743,-0.072679676,-0.11296722,-0.22378534,-0.14326145,-0.38057953,0.2792242,-0.057567243,-0.03399491,-0.3182204,0.16659,0.21420467
ASN:ASN0031,0.23099673,-0.1357088,-0.00089282275,0.06878835,-0.10303431,-0.15500756,-0.012580998,0.038746983,0.0011063815,-0.007685342,-0.1139066,0.1193545,-0.059900105,-0.1390004,-0.06663245,-0.025484353,0.10887564,0.111492,-0.13612387,0.055595115,0.22996327,-0.021905143,-0.31422386,0.1640864,0.0715414,0.13557722,0.074304104,0.005854923,-0.2377465,0.09879227,0.03440591,-0.11487848,0.08433254,0.01723234,-0.073075995,-0.18235528,0.24983345,-0.017194392,-0.23331496,0.052550755,-0.5107902,0.06339619,-0.05303035,0.13594076,-0.05118113,0.28861576,-0.11876958,-0.2631686,-0.433569,-0.29045355,-0.019098936,0.16852832,-0.120664,-0.21047674,-0.13157801,-0.10986958,0.12618908,-0.036043704,0.33688444,-0.58325124,-0.33641464,-0.0011691656,0.28663996,0.060589835
ASN:ASN0032,0.089063376,-0.15050827,0.087468594,-0.37648404,-0.2837548,-0.040512566,-0.18331239,0.3299051,-0.28826424,0.18572433,-0.19536254,-0.068261474,0.36680883,0.055544116,-0.1991024,-0.36181626,0.22347116,0.42065004,-0.1617256,0.35921657,0.31973553,-0.19980173,-0.3344734,-0.14890897,0.4028926,0.07181927,0.11354435,-0.29889575,0.27875176,-0.027759125,-0.058211915,0.0027356816,0.003941136,0.01432413,0.2862253,0.109321624,-0.031732067,-0.2665705,-0.44681013,-0.052490488,-0.034427118,0.060500372,-0.0903896,0.37349108,0.075442486,-0.26472944,0.025566474,-0.20652765,-0.0923699,-0.3240467,0.15893885,0.60307735,-0.5040309,-0.35203412,-0.16647564,0.07129289,0.0335534,-0.21433035,0.15360913,-0.09054378,-0.66303724,0.32604003,-0.010348357,0.08518193
ASN:ASN0033,0.06006232,-0.34962413,0.028296597,-0.34559867,-0.13844146,-0.17195012,-0.4509504,0.35521618,-0.10384439,0.36679295,-0.346217,-0.073589966,0.045029324,0.15141794,-0.5507212,-0.26736352,0.10789685,0.30410433,-0.4554305,0.3762776,0.2047535,-0.28911504,-0.46499464,0.031307146,0.1679677,-0.026577376,-0.1319222,-0.07051696,0.062461685,-0.081194155,-0.105600305,-0.22054431,0.20332898,-0.052480247,0.025192292,-0.062386695,-0.07786475,0.008235397,-0.23524395,-0.030111315,-0.21842597,-0.032885764,0.13161202,0.18314663,0.12735318,0.021175433,-0.28288034,-0.22591902,-0.09765198,-0.28407255,-0.037445296,0.020828111,0.05865184,-0.17736253,-0.26885322,-0.055606976,-0.09714423,-0.06835297,0.1578687,-0.1908291,-0.11258882,0.09823304,0.06655508,-0.17395647
ASN:ASN0034,-0.08508049,-0.14701787,0.11386391,-0.34277153,0.013034756,0.06476507,0.0062226006,-0.07518203,-0.39413986,0.37367517,-0.07506717,-0.06866056,-0.0037102709,-0.072512515,-0.4670422,-0.13990052,0.074769765,0.08420298,-0.32585734,0.46051633,0.28714716,-0.076130174,-0.51366657,0.15100543,0.20461696,0.085705005,-0.25765705,0.09736804,0.057855856,-0.07811193,-0.013094378,-0.09356443,0.07271401,0.037989754,0.15794413,-0.20594883,0.16250369,-0.12154964,-0.22780581,-0.19250843,-0.14685711,0.010920588,0.012414509,0.27256778,0.2250273,-0.004558107,-0.29420877,-0.36328506,-0.14645778,-0.33045113,0.21201554,0.42701784,0.07398658,-0.3790163,-0.2176337,0.13728961,-0.04851736,-0.24000064,0.0045287716,-0.2777221,-0.23530848,0.09907152,-0.10734164,-0.045034226
ASN:ASN0035,-0.049768865,-0.091462456,0.2408807,-0.18576646,-0.3190463,0.015959531,-0.4054971,0.21856712,-0.41624057,0.4713032,-0.21383573,-0.02984872,-0.12409464,0.004026238,-0.2907447,-0.118478365,0.15492953,0.33182934,-0.3025698,0.27810144,0.2589978,-0.19368796,-0.38275734,0.14461623,0.2723705,0.10557844,0.14694966,-0.17050605,-0.004449695,-0.048826437,-0.04576203,-0.38260025,0.06996591,0.13949165,0.08798142,0.07672206,0.19252259,-0.0077479463,-0.29161787,-0.13680802,-0.2713688,0.0570241,-0.2291621,0.08207083,0.09349008,0.09340675,0.008381521,-0.19082764,-0.10419332,-0.14532779,0.19050789,0.16113472,-0.18776384,-0.33247232,-0.23871978,-0.041580092,-0.018317023,-0.031756952,0.24306422,-0.23709872,-0.27220893,0.037197907,0.13302898,-0.19333391
ASN:ASN0036,-0.06501863,-0.16544473,0.266143,-0.3494341,-0.26969606,-0.009522599,0.04143666,0.38619503,-0.19219795,0.32724085,-0.1420417,0.041072935,0.21506085,0.20352648,-0.21636026,-0.041350484,0.23957,0.29062855,-0.1909292,0.5712458,0.32880196,0.032121133,-0.40093505,-0.05842869,0.32157367,0.017799813,0.15976699,-0.16306123,0.056029756,-0.013806695,-0.18691997,0.043453455,0.07273312,0.1519292,0.09128359,0.122652866,0.20683531,-0.302771,-0.095038965,0.010765264,-0.22513826,0.015214697,-0.26732326,0.41722238,-0.0072210478,-0.09051804,-0.19930927,-0.3251752,-0.098188795,-0.104335405,0.037711248,0.7595589,-0.18065432,-0.19666547,-0.080917895,-0.005961067,0.29206103,-0.1546271,0.17238896,-0.20546289,-0.37567252,0.28311,-0.107612744,-0.010468525
ASN:ASN0037,-0.08004784,-0.20989268,0.16768016,-0.3124291,0.05231484,-0.006188808,-0.06645383,0.08016997,-0.14828846,0.20886838,-0.038891986,0.07297056,0.22997077,-0.11672365,-0.12382956,-0.12534459,0.23851292,0.33608717,-0.354376,0.29062316,0.271233,0.13879049,-0.2659907,0.011830675,0.27550313,0.30722827,0.109232865,-0.07909879,-0.19201373,0.30617657,-0.27735516,-0.053141564,0.040893804,0.1919699,-0.100080766,0.012764499,0.21328111,-0.20444368,-0.27343538,-0.17104688,-0.21504165,0.027391598,-0.08978745,0.22423863,0.04379048,0.20911947,0.09915503,-0.25558656,-0.21352988,-0.03830517,0.0140897455,0.3057374,-0.03498024,-0.32460764,-0.086619966,0.1023379,0.33299926,-0.05250872,0.19385847,-0.18910193,-0.48606485,-0.15800242,0.14236827,-0.105322905
ASN:ASN0038,0.0058412934,-0.07542314,0.19603917,-0.37381962,0.043538336,0.17704454,-0.34121442,0.014350303,-0.4082532,0.3172634,-0.09890771,0.1298288,-0.061058067,0.016768204,-0.26910084,-0.19078209,0.10371674,0.43218255,-0.42999038,0.30530185,0.16823979,-0.0015744709,-0.38165733,-0.02159825,0.25163084,0.27363467,0.19173916,-0.024721388,0.14040706,0.18707092,-0.14885539,-0.20305054,0.14945324,0.13643804,0.11238259,-0.14243291,0.15767507,-0.17415708,-0.52261436,-0.2044001,-0.412334,0.016742976,-0.13046815,0.16650578,0.03989736,0.013859396,0.15443209,-0.3035805,0.020118332,-0.2555144,0.1693182,0.17994435,-0.1011815,-0.30693007,-0.14961436,0.0035733534,0.23107195,-0.11268531,0.105579495,-0.33803347,-0.25686383,-0.06879882,0.08587508,0.069792524
ASN:ASN0039,0.059859708,-0.23445402,0.3199363,-0.27773687,-0.06813296,0.12214627,-0.050408404,0.007422518,-0.15455018,0.17040019,-0.08055628,-0.083618775,-0.1384105,0.15856811,-0.2798692,-0.104627244,0.043038182,0.2803812,-0.36983943,0.23149718,0.19955952,-0.015344593,-0.29577482,0.04247023,0.3297898,0.1762075,0.070482254,0.043442924,-0.03621506,0.10089964,-0.03009729,-0.18830165,-0.042756133,-0.02346687,-0.09674981,-0.14339913,0.17212267,-0.09456712,-0.088216424,-0.011807429,-0.35506296,-0.13521218,-0.050723284,0.13540752,0.055744223,0.23948783,-0.09361365,-0.47556365,-0.17521264,-0.18454242,0.103941135,0.27820656,-0.020151684,-0.28619066,-0.14494237,0.012892973,0.26135325,0.09449327,0.09174006,-0.2237264,-0.15008889,0.039761186,0.15150289,-0.07445473
ASN:ASN0040,0.24163401,-0.2046292,0.22698362,-0.4992327,-0.113666154,0.09546072,-0.10172774,0.16495833,-0.23658855,0.2975661,-0.076835066,-0.13709065,0.15701082,-0.050238796,-0.32788625,-0.28126124,0.18773524,0.5020613,-0.15046392,0.58055884,0.1681031,-0.16429296,-0.2189888,-0.11607031,0.20542867,0.3021236,-0.049604863,-0.12206888,0.15130052,-0.058218632,-0.060336117,0.028801955,0.16425379,0.045790676,0.33930424,-0.14922853,-0.10373533,-0.2037329,-0.3228711,0.11069897,-0.033831693,0.005452287,0.10916185,0.26290157,0.18858482,-0.23914865,-0.061064832,-0.34217566,-0.27237502,-0.41591594,0.1301524,0.3787101,-0.26045018,-0.3100629,-0.19688989,0.116545394,0.15476716,-0.10029775,0.20852861,-0.22832529,-0.32392415,0.13096714,-0.12343774,0.10307963
ASN:ASN0041,-0.0790052,-0.079403594,0.30999273,-0.33946526,-0.17185019,-0.011237026,-0.091480725,0.20657371,-0.31921935,0.4726315,-0.30587402,-0.09784803,0.052794017,-0.10563436,-0.1520659,-0.14102337,0.2464949,0.31440413,-0.23948641,0.5083426,0.16651927,-0.22733606,-0.3629631,-0.093620576,0.33504575,0.1939082,0.14613351,-0.20935948,0.20140238,-0.018034186,0.088194735,0.00465736,0.08804208,0.15097731,0.16265061,-0.018932397,-0.071202,-0.07566058,-0.45172575,-0.02334687,-0.2097206,0.042691536,-0.22125785,0.3674053,-0.014933584,-0.03261797,-0.04960267,-0.2543699,-0.18183422,-0.45833054,-0.0064456463,0.36265552,-0.09036476,-0.2981805,-0.19845569,-0.08637284,0.22647509,-0.025639735,0.15007776,-0.17810968,-0.35819367,0.04932022,0.0152897015,-0.013445568
ASN:ASN0042,0.08312915,-0.35756114,0.082520865,-0.5294165,-0.12737982,0.006564207,-0.24871948,0.11584002,-0.1454056,0.37958348,-0.3019458,-0.146934,-0.07933221,-0.090232834,-0.26368037,-0.28193292,0.13293356,0.34662083,-0.21015634,0.5408392,0.24928927,-0.24189468,-0.44187889,-0.13655645,0.19763342,-0.070590265,-0.13996881,-0.24147512,0.062568225,-0.093376175,0.09251084,-0.14932472,-0.10802764,-0.19558674,-0.019859415,-0.20253354,0.09392234,0.059151534,-0.28929988,-0.04791335,-0.056310616,-0.04338226,0.07584983,0.26265433,0.2441717,-0.027544241,-0.027529994,-0.25787115,-0.15206663,-0.36806363,0.15802887,0.3397638,-0.019514898,-0.30136004,-0.14439306,0.057608142,-0.19236219,-0.29784033,0.039861128,-0.1148076,-0.07678805,0.15358482,-0.29713476,-0.13837203
ASN:ASN0043,0.012985418,-0.25878653,0.22948611,-0.08262331,-0.29854685,0.004087335,0.044468615,0.19093412,-0.10313348,0.12031948,-0.18231177,-0.07207817,-0.047473248,0.09441429,-0.37165424,-0.12608048,0.24017268,0.26049957,-0.065846,0.35425955,0.13927552,0.071255125,-0.30008507,0.15496123,0.34396967,-0.2309013,-0.3128722,-0.3252839,-0.16922908,-0.16088358,-0.052346107,0.009301057,-0.15142311,-0.038859855,-0.112372555,-0.04304329,0.062646866,-0.097086996,-0.10349107,-0.0224799,-0.02545167,-0.049512234,0.01940755,0.061841395,0.10511821,0.2265569,0.01333519,-0.15014087,-0.05596187,-0.25168145,-0.2996699,0.18332614,-0.07940604,-0.33266985,-0.30864942,0.024121871,0.1760588,-0.13298377,0.056854196,-0.16013181,-0.16540492,0.060048863,0.008174731,-0.092334785
ASN:ASN0044,-0.067363076,-0.12596646,0.18097769,-0.3512152,-0.25595507,0.23881277,0.026518058,0.07412773,-0.16137262,0.062458154,-0.030398061,0.05216496,0.08060812,0.25438836,-0.50343275,-0.061531223,0.31063944,0.19778326,-0.20515814,0.15952565,0.2911279,-0.106130354,-0.33939046,0.2325721,0.5365325,-0.13721663,-0.058131754,-0.11105728,-0.19637139,-0.22945867,-0.01793,0.02031754,0.004649406,0.11817323,0.1464385,0.10927704,0.36327,-0.00010173988,-0.20677692,-0.09272648,-0.21843119,-0.009835323,-0.056219824,0.39491928,0.012013888,0.10423583,-0.101640955,-0.23334397,-0.10234691,-0.24500051,-0.09504784,0.31639543,-0.12775409,-0.26062843,0.010021451,-0.15204999,-0.034845922,-0.13786061,0.14718632,-0.3170605,-0.21388249,0.24240538,0.080967344,-0.11850736
ASN:ASN0045,0.12795325,-0.047063936,0.17356755,-0.19561186,-0.24867907,0.19684787,-0.13164523,-0.029402092,-0.09127202,0.13572074,-0.20004202,-0.03675268,-0.020968108,-0.11659856,-0.22808617,0.02294824,0.17605345,0.17532289,-0.17759974,0.23208527,0.17853855,0.03218754,-0.19024655,0.14240824,0.1483938,0.25058725,-0.002884168,-0.20303562,-0.054121897,-0.03698577,0.030323053,0.059465203,0.13851279,0.17779481,-0.034224704,0.12231686,0.26692706,-0.19865225,-0.4351518,-0.031226868,-0.13503827,0.0480679,-0.11503313,0.22498411,0.098357856,0.14631961,0.06963599,-0.16772996,-0.13945177,-0.27477345,0.18508516,0.11034596,-0.11908611,-0.41823834,-0.09834874,-0.1570084,0.043903973,-0.030585758,0.26682493,-0.4796021,-0.4009181,0.057057537,0.3066995,0.072840504
ASN:ASN0046,-0.083514005,-0.15463816,0.19819395,-0.23995857,-0.0213406,-0.050499573,-0.082593665,0.18103978,-0.15051246,0.14880525,-0.1153986,0.011570751,0.09373374,-0.034183644,-0.32748148,0.042877525,0.02051695,0.44612962,-0.36333087,0.30633083,0.08110211,0.08412109,-0.3243426,0.14003399,0.2348928,0.052238896,-0.049782503,-0.0982642,-0.013822839,-0.12270228,0.13576047,0.14005643,0.121381566,0.07825174,0.09574763,-0.16049424,0.06227018,-0.17077026,-0.33555686,0.09555433,-0.2186007,0.09877363,-0.14698853,0.14386657,0.13327773,0.31356832,-0.117764816,-0.25416797,-0.23654482,-0.28430486,0.14981702,0.16371347,-0.2243389,-0.12649246,-0.030505477,-0.06665089,0.061061274,-0.20137908,0.32731253,-0.32572925,-0.33134958,-0.03970009,0.10162566,0.1391309
ASN:ASN0047,0.05551161,0.016883574,-0.034816377,-0.16946992,-0.13027598,0.0041204514,0.019564254,0.022981267,-0.2779292,0.08876738,0.03333453,-0.080044456,0.019547483,-0.22757632,-0.36959872,-0.11850365,-0.01326577,0.3444929,-0.43992198,0.40520796,0.11666707,0.056244493,-0.19120225,-0.034166172,0.13679026,0.113691606,-0.09249464,0.13759866,0.00080322643,0.043321066,-0.06319542,0.0032462357,0.26597232,-0.01741969,0.16477875,-0.079449855,0.10841255,-0.31886253,-0.20555763,0.10378786,-0.32532105,0.112242736,-0.017313015,0.065778635,0.25376523,-0.024974724,-0.15059641,-0.2720854,-0.06868124,-0.34645137,-0.03062862,0.37506652,-0.2633808,-0.42427093,-0.09503517,0.01627091,0.16370824,-0.12880737,0.31460497,-0.28093714,-0.61669105,0.018392967,0.04761917,0.06225661
ASN:ASN0048,-0.0015214379,-0.35163617,0.21329713,-0.38674065,-0.30500957,0.018030532,-0.35155767,0.30627367,-0.38348946,0.2592623,-0.17340177,0.14353307,0.059406914,-0.15123281,-0.14670244,0.053112447,0.066982865,0.44763878,-0.49131626,0.5047923,0.20567052,-0.1161547,-0.36594197,-0.027911844,-0.07054525,0.21867213,-0.029404031,0.12080604,0.12237427,0.0015323609,-0.02220608,-0.14861391,0.2898327,0.083193384,0.2193894,-0.030828336,-0.08416076,-0.18454842,-0.35246152,0.33550316,-0.49639395,0.06363681,-0.18466705,0.027878506,0.14225952,0.09579565,0.04300128,-0.21674567,-0.0057717776,-0.052923024,-0.08875814,0.15432486,-0.11450644,-0.3143354,-0.20410347,-0.012027553,0.26656398,-0.20121464,0.18969524,-0.27066126,-0.24310283,-0.012991871,0.15480466,-0.022432296
ASN:ASN0049,-0.01995244,-0.39734545,0.3469339,-0.2829096,-0.36126217,0.028628614,-0.05692061,0.32030475,-0.09225956,0.3354918,-0.414869,-0.09673606,0.029511442,0.22348982,-0.09929299,-0.2356803,-0.037131563,0.52080154,-0.30607176,0.44254833,0.2556953,-0.17321141,-0.31077498,-0.20403449,0.16260679,-0.12610464,0.29456276,-0.21160154,0.030657655,-0.15477835,-0.008166313,-0.1087293,0.05330364,-0.13612182,-0.036773473,-0.14089039,0.036188588,-0.23840941,-0.15060215,0.19980781,-0.16469897,0.036920637,-0.04643316,0.09193072,0.06718663,0.05790556,-0.20466553,-0.33077073,-0.124257386,-0.23660319,0.06004774,0.42930657,-0.13400549,-0.23803486,-0.23833142,0.22752771,0.017270515,-0.25616902,0.18415068,-0.056185428,-0.29696685,0.41539827,-0.28853938,-0.12062599
ASN:ASN0050,0.21691848,0.01454148,0.13361959,-0.11202686,-0.28890783,0.005657176,0.128746,0.2566513,0.15394892,0.11098755,-0.21035363,-0.0706706,0.22580695,0.11776677,-0.32330903,-0.093440086,0.16430937,0.17900752,-0.08143429,0.41436034,0.18022187,0.02004276,-0.07289847,0.08526567,0.2019825,-0.15182492,0.13958879,-0.21262577,-0.0072922152,0.0090801325,-0.106361754,0.23147534,-0.071504384,0.10360208,0.075642414,0.0540728,0.34568143,-0.45878932,-0.03466705,0.020274585,-0.14243726,0.087266155,-0.13898851,0.19176042,-0.08894533,0.11106028,0.019957656,-0.15449935,-0.16963333,-0.30522498,-0.065360166,0.4336773,-0.3453362,-0.20376207,-0.38378686,-0.17188993,0.081956655,-0.06304526,0.26138046,-0.3397454,-0.52406186,0.30240828,0.16750188,0.038395487
ASN:ASN0051,-0.07112447,-0.17188856,0.1351108,-0.09069213,-0.08558214,0.08347566,0.13036934,0.045763284,-0.010843688,-0.12893677,-0.07955675,0.04012918,-0.054464355,-0.05118235,-0.23256595,-0.04933613,0.0584284,0.14294297,-0.2018118,0.00097225426,-0.079799674,-0.07317487,-0.33086562,0.22050452,0.13539724,-0.10185006,-0.118966825,-0.09999463,-0.28298563,-0.049861748,-0.010088785,0.24429215,0.033571683,-0.11041718,-0.14564228,-0.23314628,0.2675998,-0.21867919,-0.2612024,0.32108492,-0.102886096,0.09465032,0.28180864,0.04447742,-0.06611026,0.23061155,0.020576084,-0.259816,-0.30505794,-0.49750847,-0.051391236,0.019798268,0.032103136,-0.26178432,-0.35891157,0.045408454,-0.045742515,0.019560684,0.32632986,-0.38978776,-0.16670008,0.042300746,0.26115978,0.26644528
ASN:ASN0052,0.17618537,-0.33592927,0.17828372,-0.21869092,-0.113203056,0.045132224,-0.1391531,-0.19244233,-0.19224924,0.17152075,-0.14758433,-0.07651202,-0.086720444,-0.32264256,-0.26141846,-0.115325145,0.1346089,0.28567,-0.17528012,0.16737863,0.109974764,-0.01598847,-0.26987153,0.070088685,0.031231,0.2414967,-0.17147194,-0.049199805,-0.23067975,-0.0089965565,-0.094243795,-0.18149894,0.14372823,-0.057493895,-0.103961304,-0.14391986,-0.038669605,0.015398758,-0.1371833,0.2177588,-0.26140708,-0.05335675,0.10969003,0.14558105,0.05046619,0.23216464,0.002662385,-0.1029983,-0.16217193,-0.41037196,0.082917176,0.026350418,0.13696097,-0.41205555,-0.15904447,-0.12525801,0.11686364,0.11998482,0.11767104,-0.2574227,-0.14809325,-0.059722364,0.12985447,-0.040471613
ASN:ASN0053,0.14424366,-0.059379116,0.14476746,-0.5268326,-0.1298943,0.22761887,0.022909228,0.14602475,-0.2574537,0.16312084,-0.04950094,-0.1005033,0.02283859,0.07767789,-0.24322225,-0.04488554,0.12358556,0.15781192,-0.122111514,0.32021055,0.22503136,-0.016055234,-0.46530417,0.056991424,0.28845146,0.24338901,0.19704495,0.005567774,0.17360361,0.16845866,-0.061772604,-0.11854861,0.22662781,-0.050948683,-0.026527632,-0.13638419,0.20592584,-0.25782585,-0.284791,0.06360157,-0.29757014,-0.092024885,-0.16043904,0.18178917,0.16557445,0.11070592,0.14819953,-0.21271591,-0.1577532,-0.4003115,0.12893979,0.49569643,-0.08954336,-0.28364286,-0.07147519,-0.034512732,0.10359491,-0.060849436,0.18753834,-0.3194553,-0.18834452,0.26782387,-0.2153243,0.19011591
ASN:ASN0054,0.23282787,-0.18202685,0.24388494,-0.21084245,-0.16198221,0.08026288,-0.24120149,0.072758816,-0.020529853,0.16216782,0.00015105835,-0.016721444,0.091271125,-0.035329096,-0.18023802,-0.29078218,0.087689534,0.24951103,-0.22977313,0.2534039,0.3064029,0.19828483,-0.2700483,-0.037301246,0.30468807,-0.12948035,-0.04874636,-0.18803419,-0.23643346,0.09736272,-0.28536534,-0.051195767,-0.04107885,0.0635654,0.1624479,0.030231493,0.23342933,-0.2939475,0.014698725,0.09335016,-0.16097316,-0.11701137,0.13861358,0.061592195,0.1777638,0.2024515,-0.015473983,-0.23630148,-0.10553431,-0.13240726,0.12871899,0.2259972,-0.18327586,-0.12681201,-0.266567,-0.07165263,0.1413645,-0.0495301,0.17682002,-0.16886687,-0.30811977,-0.007725568,-0.008491761,-0.023305696
ASN:ASN0055,-0.03719606,-0.03357469,0.12980016,0.012211155,-0.23082827,0.13409397,0.005787612,-0.07103542,-0.18648711,0.16625583,-0.33905044,0.047918994,0.17246203,-0.14325252,-0.13515,-0.08301366,0.03267655,0.16277395,-0.17962575,0.35790706,0.19563216,-0.084406056,-0.20548004,0.028794972,0.27414998,-0.03156622,-0.07080707,-0.15320227,-0.16621643,-0.11007875,-0.15044883,0.11136333,0.056655765,0.043451082,-0.21459934,0.19195393,0.25168836,-0.31885162,-0.11723765,-0.11702267,0.023325358,0.092361435,-0.10755506,0.15392902,0.06589039,0.046617877,-0.18699272,-0.18885735,-0.04879386,-0.32412553,-0.023545988,0.21433677,-0.30330387,-0.39561242,-0.40965137,0.04883944,0.0626529,-0.077667914,0.22516656,-0.3826371,-0.46183744,0.27675888,0.076262705,0.08906399
ASN:ASN0056,-0.21814592,0.066525355,0.26640552,-0.22217225,0.06858642,0.062397033,-0.01999754,0.15587544,-0.118209556,0.12892261,-0.053421646,0.070328094,-0.19166753,0.20105134,-0.27966893,-0.07253312,0.10995092,0.2435234,-0.29643878,0.2565333,0.008043392,0.028122181,-0.2963739,0.00048058538,0.17227301,0.016747879,0.09207384,0.018599223,-0.104061835,-0.09072952,0.031704795,-0.080233924,0.09535978,0.012549242,-0.035073813,-0.23243254,0.29193085,-0.10411556,-0.44492307,-0.010149667,-0.27310127,0.19582322,0.1646093,0.16915514,-0.022570072,0.13722251,-0.06765898,-0.4470162,-0.24592225,-0.3758364,-0.022839079,0.34591973,-0.14712141,-0.30516756,-0.3769758,0.19711532,0.09204143,-0.07903998,0.17440344,-0.433648,-0.3628736,0.19046241,0.05964856,-0.11364188
ASN:ASN0057,0.13243943,-0.15045269,0.1860963,-0.25016263,-0.12117293,0.056315668,-0.12061911,0.066531256,0.09333523,0.090476,-0.2680355,-0.04069497,-0.10758195,-0.12596825,-0.25264376,-0.083133824,0.054684225,0.22364059,-0.089714974,0.26649886,0.23225652,-0.008399225,-0.24589163,0.070141636,0.18404445,0.16710141,0.09061894,-0.09506335,-0.13366322,0.015704717,-0.061862066,-0.11955317,-0.055611797,-0.045652155,-0.0823222,-0.10806022,0.2442182,-0.17912227,0.041969765,-0.07029666,-0.1833008,0.107873,0.20158628,0.2630057,0.08493619,0.22968265,-0.12445375,-0.19273457,-0.06340625,-0.25208163,-0.0011886178,0.37914157,-0.13469024,-0.3563496,-0.39340773,0.093847126,-0.008201523,-0.09355826,0.20794015,-0.111419566,-0.10413476,-0.05218383,-0.03511331,-0.057681624
ASN:ASN0058,0.0030203755,-0.2580506,0.32064685,-0.44598028,-0.1880058,-0.037505526,0.09481069,-0.0616467,-0.383128,0.2140585,-0.18582784,0.049661346,0.20751914,-0.06972146,-0.38702992,-0.105214626,0.16231865,0.3719666,-0.24934432,0.3668355,0.31029275,0.13842256,-0.4113547,0.05588376,0.35858133,0.12495856,-0.05807043,-0.14239512,0.042790607,0.12941858,-0.26683888,-0.044226468,0.09088369,0.32340887,0.109266825,0.16502833,0.113782525,-0.14272724,-0.20956926,0.09616563,-0.16898535,0.06722638,-0.32011598,0.29841834,-0.07525304,-0.06516744,-0.047919653,-0.10072022,0.047787674,-0.028297242,0.12479415,0.36799654,-0.043988496,-0.36240917,-0.004093412,0.08223329,0.15433179,-0.08359486,0.12844048,-0.10812748,-0.3857744,0.17021754,0.15179498,0.04801383
ASN:ASN0059,0.22434698,-0.4008436,0.27582332,-0.23703918,-0.31997412,-0.07349868,-0.06639839,-0.046836607,-0.108578876,-0.04228394,-0.29134104,-0.045104925,0.036927186,-0.253915,-0.11053624,-0.25085297,-0.115693904,0.14646205,-0.009693743,0.11356063,0.2162137,0.06935888,-0.2781335,0.04701593,0.07335245,-0.42442456,-0.31404352,-0.0761454,-0.12866658,0.22051977,-0.08871973,-0.008676189,-0.19420528,-0.030889317,-0.2782995,-0.15081196,0.11793784,0.029830711,-0.010761594,0.1614668,-0.092888094,-0.21410617,0.2418754,0.17558639,0.10569144,0.32477787,-0.055931184,-0.22871858,-0.055482533,-0.2821824,-0.006184468,0.008024395,0.04546187,-0.24329016,-0.32032007,-0.09056377,0.023481848,-0.06795237,0.25244054,-0.25223017,0.08175697,-0.22581805,-0.050360586,0.01301024
ASN:ASN0060,0.13048677,-0.11876191,0.26225832,-0.203981,-0.14513032,0.17331564,0.040136117,-0.04871556,-0.12558565,-0.10107418,-0.13984627,0.024622349,-0.10711547,-0.13419725,-0.18761624,0.13285445,0.23232773,0.11781788,-0.0727905,0.10340663,0.19850266,0.029704599,-0.24205106,0.077554174,0.2534966,-0.16596831,-0.040350433,-0.07153465,-0.11868088,0.032627486,0.0023200805,0.06819399,-0.21468788,-0.083507344,-0.0019639828,-0.13758218,0.3008982,-0.11145638,-0.20979004,0.15970306,-0.28472504,0.106039986,0.14762561,0.10562013,0.014056756,0.17772907,0.1441785,-0.29650483,-0.23173879,-0.3505146,0.01017134,0.16009675,-0.10842182,-0.2985681,-0.17977269,-0.08608661,0.11764723,-0.09967517,0.15394464,-0.3268549,-0.13960424,0.010469607,0.13568638,0.13655373
ASN:ASN0061,0.022746818,-0.2750096,0.17055525,-0.32638118,-0.17184299,-0.12764357,-0.024874868,0.17711613,-0.20784517,0.28483042,-0.18369277,0.19370346,0.2255909,-0.100191616,-0.21165301,-0.17032588,0.13093047,0.3592663,-0.19869342,0.2950698,0.38784978,-0.23287793,-0.47405007,-0.12224876,0.34929922,0.082926035,0.09927286,-0.1804636,0.099397995,-0.014539815,0.0341011,-0.07544662,0.0060486556,-0.092525356,0.1116915,-0.06403893,0.16350251,-0.17648004,-0.16467968,-0.049740072,-0.40748817,0.25436538,-0.26994914,0.2612293,0.0055684336,0.042286877,-0.07601642,-0.090049155,-0.15322116,-0.31975403,0.36295855,0.5964963,-0.13753064,-0.05386402,-0.019995634,-0.137878,0.17804223,-0.30839264,0.10489767,-0.23361829,-0.20571065,0.12063803,-0.11743081,0.0123139955
ASN:ASN0062,0.07795637,-0.14912735,0.14038676,-0.25779602,-0.07981762,0.21689692,-0.02771102,-0.04629615,-0.059533216,0.11293692,-0.25770476,-0.17530374,0.031334493,-0.12129457,-0.25485408,-0.0067796954,0.029360505,0.40353873,-0.10646888,0.4588868,0.23003289,-0.008662524,-0.43815002,0.102127865,0.27866912,0.045827378,-0.009728613,-0.047431458,-0.11663081,-0.14037597,0.035499025,-0.14092746,0.07306146,-0.25206205,0.013155637,-0.04303142,0.044023294,-0.073141165,-0.28694215,-0.015709804,-0.10499493,0.07788227,0.046862546,0.15923086,0.19085884,0.19594663,-0.15325342,-0.46748143,-0.15855,-0.285543,0.019663969,0.35826197,-0.06028913,-0.27369216,-0.05156524,-0.12537473,0.02078062,-0.18897827,0.2002817,-0.26802722,-0.09268179,0.08232091,-0.12741104,-0.11512239
ASN:ASN0063,0.11989254,-0.26317307,0.2978092,-0.30092523,-0.019285796,-0.02911784,-0.077140085,0.1552436,-0.29625526,0.39379197,0.017495254,-0.26752087,0.13176838,-0.07304881,-0.49554053,-0.25894582,-0.060081434,0.48160657,-0.33457342,0.55977666,0.22077367,-0.030968297,-0.53239024,0.021806225,0.28374824,0.19081517,-0.029495591,-0.008086832,0.09494824,0.028422438,0.042119812,-0.11787066,0.17225808,-0.087994635,0.26678613,-0.075509615,-0.032603115,0.01705057,-0.13717735,-0.1147595,-0.22520813,-0.12544358,0.053651985,0.24865656,0.057167117,0.05528836,-0.22152771,-0.42089337,0.11207692,-0.115484506,0.06345851,0.36920345,0.0049520666,-0.25610355,-0.05855243,-0.015252908,0.10338602,-0.404943,-0.0222155,-0.05411189,-0.3462098,0.093226604,0.13262197,-0.040042188
ASN:ASN0064,0.0994152,-0.08363811,0.15911035,-0.14212571,-0.2376099,0.019225257,-0.08902654,0.22888757,-0.254833,0.07727678,-0.18803433,-0.062418602,0.08059406,-0.034392435,-0.39922544,-0.12526454,0.1883687,0.39396843,-0.08490979,0.23496878,0.23297137,0.042461473,-0.2895781,-0.026852822,0.027167263,0.0989898,0.07526894,-0.15468496,-0.0096721295,-0.14079231,0.010900383,-0.008484055,0.34457046,0.13045332,0.096118376,0.05841982,0.025329081,-0.06572424,-0.17249186,-0.008014475,-0.2608548,-0.06895458,-0.04924949,0.31636018,-0.10341538,0.041129157,-0.17293714,-0.1789502,-0.10982667,-0.31192127,-0.030989463,0.3936616,-0.30778256,-0.39520916,-0.16252963,0.0136791505,0.09561505,-0.11264244,0.23080301,-0.31616333,-0.44511,0.23617119,0.19638592,0.22038141
ASN:ASN0065,-0.1766827,-0.26550046,0.41610384,-0.2938047,-0.058871217,0.037806544,-0.10598754,0.19623803,-0.26815778,0.21139963,-0.05878571,0.1133702,-0.05120804,0.13078943,-0.19683596,-0.13064086,0.26225305,0.36938223,-0.3716645,0.6006491,0.405666,0.05826514,-0.19465101,0.036798872,0.111819096,0.1268203,0.14201488,-0.06079294,0.058684487,0.020811766,-0.15780765,-0.09517924,0.13287963,0.1590248,0.12717055,0.07118962,0.23982444,-0.18195826,-0.4556207,-0.08788475,-0.15717405,0.049039938,-0.11368615,0.3199793,0.0060994416,-0.12906796,-0.24064493,-0.37716714,-0.1716341,-0.071242124,0.13897862,0.48736504,-0.052365437,-0.30558065,-0.3073036,0.18547833,0.23416044,-0.111803375,0.12917185,-0.24694166,-0.4507745,0.24568275,0.11196973,-0.10943075
ASN:ASN0066,-0.19476558,-0.18683769,0.09948331,-0.44896555,0.2510239,-0.11291958,0.0074356114,0.27093133,-0.41175497,0.18601406,0.15052986,0.104125604,0.014293017,0.04601316,-0.31382963,-0.22520024,0.29077142,0.2921934,-0.42369774,0.2672257,0.24470069,-0.17621708,-0.46638784,0.03687896,0.46091545,0.37814724,-0.061217092,0.067861505,0.23593347,0.25070417,0.013946134,-0.36307943,0.2154121,0.13481818,0.16590308,-0.16274953,0.07663098,0.039139356,-0.28477475,-0.015420128,-0.42365384,0.15226145,-0.25251326,0.37132803,0.09837009,0.27871954,-0.07203763,-0.28899089,-0.14361285,-0.24253005,0.11778299,0.29111314,0.18196309,-0.31034973,-0.012494452,-0.14440396,0.20307125,-0.00015927071,0.2694788,-0.23596188,-0.34715554,-0.045071512,0.103479154,-0.050459746
ASN:ASN0067,0.11934163,-0.31550586,0.11169762,-0.27618828,0.16444859,0.04593962,-0.138271,0.045388404,-0.12928498,0.13469246,-0.107428804,-0.058241505,0.018658875,0.020552397,-0.40565008,-0.23952639,0.18763131,0.41070408,-0.17208214,0.18302391,0.19002844,-0.0058377925,-0.40574986,-0.01893593,0.44055092,0.21043287,-0.11811479,-0.08545829,0.095823295,0.05073323,0.085167,-0.21854337,0.10741498,-0.111498706,0.06830411,-0.23635793,0.08361447,-0.050846964,-0.23130387,-0.14470649,-0.24905993,-0.1826976,0.1306548,0.24706656,0.016316907,0.13398953,-0.102826156,-0.29750267,-0.19515178,-0.30251372,0.033287518,0.2835238,0.13201247,-0.27387148,-0.07258775,-0.2751248,0.17160459,-0.09448409,0.09598379,-0.26996195,-0.13874385,-0.21073085,-0.05743339,0.0798962
ASN:ASN0068,0.08409487,-0.060461726,0.20486897,-0.19066666,-0.43373856,-0.01590359,0.15864645,0.08701447,0.07745184,0.08853174,-0.21002635,0.07365815,0.07573624,0.14447136,-0.28297153,-0.0942568,-0.11454991,0.19389196,-0.07334647,0.42222068,0.22194421,0.30788594,-0.21557091,0.1411348,0.11211957,-0.21747749,-0.14832197,-0.27929035,-0.36938807,-0.22069693,-0.19885732,0.26695907,-0.26728612,-0.08274185,-0.025086597,0.013335384,0.36278737,-0.21504335,0.100379445,-0.037804656,-0.10863765,0.014152721,0.27601448,0.060155332,0.05318857,0.25113648,-0.14455603,-0.21610272,-0.105121255,-0.318014,-0.24012634,0.17699444,-0.0979771,-0.21522391,-0.23952956,-0.023741689,-0.03534876,-0.21625166,0.013385922,-0.30145428,-0.16977562,0.01702766,0.02407718,0.05599071
ASN:ASN0069,0.21397662,-0.35990778,0.29489127,-0.041091863,-0.28807342,-0.18722796,0.06933631,-0.26281187,-0.08625511,0.058914807,-0.085282385,-0.067141145,0.080542445,-0.36143237,-0.18544139,-0.18431094,-0.30267218,0.31544414,-0.1985479,0.22639287,-0.034532867,0.14821367,-0.16093501,0.129259,0.12307702,0.022511978,-0.4065852,-0.12952596,-0.25212434,-0.07799819,-0.097076595,-0.14330436,-0.20302872,-0.101656556,-0.21145229,-0.07335173,0.0940084,-0.16853558,0.101086274,0.08596149,-0.15511146,-0.19793794,0.3991311,0.056750417,0.29426143,0.22222464,-0.2510746,-0.22200829,-0.07651955,-0.33714703,0.052429058,0.07771287,0.01538435,-0.33168447,-0.10623439,0.14416663,0.15525602,-0.07385559,-0.061608993,-0.22871092,-0.1839497,-0.08416187,0.107367605,0.060023822
ASN:ASN0070,0.14538923,-0.07206978,0.21709281,-0.46180144,-0.11024595,0.2533741,-0.10992377,0.028865717,-0.106241226,0.24724062,-0.34599257,-0.17370476,-0.020064186,0.0023011644,-0.2659832,-0.17853048,0.07249847,0.47578,-0.10571117,0.51355404,0.311397,-0.06150345,-0.3704541,-0.14470112,0.19962661,0.045751747,0.054302882,-0.28192306,0.09698825,-0.1281437,0.0138603095,-0.22040185,0.19445188,-0.20945875,-0.008742466,-0.15658127,-0.07785743,-0.04422622,-0.17443962,0.034609426,-0.12142761,-0.07716387,0.09592371,0.232315,0.26736748,0.021457693,-0.19095893,-0.41655913,-0.089790896,-0.071546145,0.16396445,0.37073973,0.004945506,-0.29314438,-0.37261137,0.12863524,0.19560307,-0.25108507,0.26466256,-0.29503065,-0.14148636,0.13091214,-0.2765151,-0.011957955
ASN:ASN0071,0.11152156,-0.29092613,0.04416616,-0.17478801,-0.23134105,-0.078780025,-0.12715201,-0.10258718,-0.29372728,0.36870703,0.042877495,-0.023353823,-0.12728433,-0.06950837,-0.24738166,-0.29197308,0.06847681,0.28876933,-0.29867527,0.2935482,0.029430041,-0.02280148,-0.41475385,0.08588931,0.44971123,0.13768081,-0.07172712,0.03903512,-0.21266384,0.07243979,-0.24136189,-0.35122284,-0.093523964,-0.1105942,-0.057755087,-0.105104595,0.18639268,-0.098034404,0.004062091,-0.23682442,-0.2046474,-0.19714364,0.09696207,0.06376242,0.15489425,0.19426921,0.04024521,-0.09711951,0.06000919,-0.2939921,-0.001021616,0.071025535,0.0050795604,-0.45803893,-0.1310256,-0.024902856,0.10974262,0.003174991,0.1407708,-0.003392764,-0.28620708,-0.07037575,-0.16229491,-0.12088322
ASN:ASN0072,-0.15323707,-0.13348319,0.32616705,0.031172166,0.02470992,0.23101093,-0.13677268,0.12925161,-0.1781275,0.097032964,-0.38491383,-0.04725292,-0.088769354,0.02592124,-0.26613885,-0.29448786,-0.06947081,0.4728308,-0.2231792,0.15767811,0.15407372,0.007936078,-0.29857937,-0.07969359,0.2405548,0.114986725,0.19263612,-0.123465486,-0.18897457,0.0118231205,0.010770879,-0.1989024,0.15546495,-0.15050429,-0.106901154,0.05023717,0.11598959,-0.036440536,-0.36129436,-0.01519727,-0.23703188,0.20566057,-0.19650428,0.15774938,0.04731603,0.2133351,0.0030066944,-0.33754706,-0.115782075,-0.13983358,-0.05281868,0.23176943,-0.18287387,-0.28569192,-0.34682763,0.1316744,0.17489053,-0.13992077,0.13940397,-0.4145355,-0.22632687,0.16157073,0.12732834,-0.023693396
ASN:ASN0073,0.06370101,-0.10507508,0.32586256,-0.31470525,-0.0873422,0.24049248,-0.33195102,0.15515615,-0.07849297,0.12161347,-0.27950704,0.11778149,0.11333549,-0.032962978,-0.2924525,-0.054334216,0.15731607,0.25118282,-0.13038693,0.2219246,0.0509626,-0.13600245,-0.49887037,0.0723013,0.23328815,0.10433822,0.11605114,-0.051780924,-0.048399176,-0.0803981,-0.13744842,-0.23326509,0.03085747,0.07415535,0.012707153,-0.12323511,0.2094943,-0.014429284,-0.2711647,0.15704396,-0.34738082,0.19123027,0.19756539,0.10703872,-0.1546647,0.20336537,0.18013842,-0.20586048,-0.011917047,-0.18344888,0.13159104,0.19523515,-0.00690537,-0.22678535,-0.360108,-0.015719183,0.29473552,-0.106108405,0.19051333,-0.25201064,0.016924588,0.06491152,0.034344617,0.08701254
ASN:ASN0074,-0.17290217,-0.087705046,0.12228623,-0.009511661,-0.22413978,0.29215437,-0.11463612,0.21064605,-0.17871954,0.24492712,-0.18609872,0.0010878898,0.01316972,0.13286251,-0.4224206,-0.16959158,0.15196145,0.28592464,-0.22338745,0.26335984,0.08380077,-0.1991095,-0.3666354,-0.010939677,0.27351105,0.2325763,0.107383445,-0.09641239,-0.050705474,-0.123219,-0.12307145,-0.11634701,0.39010614,-0.007994781,0.056319065,0.11337507,0.32574308,-0.20386954,-0.32019827,-0.04251272,-0.28825456,-0.004404334,-0.11268658,0.21072415,0.27376616,0.09416561,0.04988994,-0.30272737,-0.20656855,-0.052061744,-0.13374767,0.23597535,-0.19157638,-0.2986284,-0.14582162,-0.04600665,0.250843,-0.06346037,0.23309538,-0.3768344,-0.33754942,-0.13989228,0.20967196,0.11203477
ASN:ASN0075,-0.16998917,-0.20504701,0.14351843,-0.45251667,-0.23027757,0.10467781,-0.16279548,0.2883329,-0.21342489,0.27903712,-0.27362514,-0.17830062,0.0054127476,0.24483854,-0.44908637,-0.28014284,0.104381435,0.4362219,-0.27748808,0.5998783,0.37746662,-0.313403,-0.44770277,-0.12425639,0.2824697,0.057021003,-0.00073136913,-0.2123615,0.27330577,-0.1448025,-0.018342223,-0.20869087,0.30595896,0.013288395,0.20687427,0.0030263022,-0.035507407,-0.12800296,-0.33267745,-0.021356467,-0.15335433,-0.18074028,-0.20362219,0.31913167,0.3121688,-0.1329223,-0.21913911,-0.21659414,-0.112714425,-0.339208,0.24328658,0.57709044,-0.12091321,-0.3013895,-0.17543428,0.008713479,0.03178817,-0.05266418,0.24612388,-0.20237024,-0.19870298,0.22687574,-0.27367023,-0.035688005
ASN:ASN0076,0.1218342,0.03798531,0.4501316,-0.14433917,-0.1232771,0.2059292,0.07505838,0.120987765,-0.23463,0.2290148,-0.21060298,0.06255293,0.372577,0.22733401,-0.23849839,-0.15130268,0.041842252,0.19740628,-0.18703784,0.3197043,0.28242525,0.08331646,-0.338731,0.071945995,0.32918558,-0.0026031055,0.29834723,-0.3798013,-0.048327297,-0.009324357,-0.2093285,0.16731821,0.031725034,0.11710236,0.1119002,0.0028364987,0.25340003,-0.3600458,-0.31277892,-0.1637994,-0.16556002,-0.072259955,-0.05711524,0.21483722,-0.08232306,-0.20693769,-0.05409044,-0.44440666,-0.009682957,-0.2252909,0.16690953,0.46330574,-0.25962186,-0.23762012,-0.12399272,-0.0091524515,0.2534252,-0.31562373,0.20005389,-0.27599996,-0.49825662,0.08330822,0.22122349,0.05908736
ASN:ASN0077,0.108636044,0.01203871,0.27126917,-0.1462672,-0.31204408,0.05135271,-0.078880034,0.092183955,-0.07512395,0.06923708,-0.34376067,-0.35543638,-0.08704997,0.084900096,-0.35592705,-0.07159924,0.04225457,0.28456643,-0.09809522,0.17818458,0.03735966,-0.10942103,-0.3566049,-0.09583638,0.30662233,-0.05891378,0.14820936,-0.16310747,-0.18846749,-0.09851594,0.14533608,-0.22236049,0.2208801,-0.05702436,-0.088098474,-0.16666621,0.25387263,0.16350333,-0.22529165,0.12959465,-0.21001948,-0.015285736,-0.059761163,0.29704568,0.18560693,0.03121196,-0.24743421,-0.32129994,-0.39003938,-0.35815927,0.025116883,0.4956208,-0.22077775,-0.27480716,-0.2895802,0.0177168,0.13461557,-0.04611703,0.24053076,-0.12268808,-0.20502038,0.2264994,-0.027302405,-0.20300823
ASN:ASN0078,-0.1381618,-0.14833127,0.26845774,-0.36255878,-0.032149147,0.27170184,-0.056574844,-0.024772378,-0.40294826,0.1557847,0.0055326014,0.011938171,-0.036242317,0.011812365,-0.28479847,-0.18659897,0.07765028,0.37898508,-0.4187615,0.5330768,0.05309688,-0.018909972,-0.37278157,-0.002537009,0.2677412,0.16342203,0.12254087,-0.031668767,-0.11004418,0.035997007,-0.25507215,-0.10746446,0.27905223,0.028185284,-0.045082543,-0.039353937,0.17847522,-0.41699994,-0.4542175,0.016595934,-0.21890628,0.00036163366,-0.06379672,0.018413456,0.21997148,0.018537475,-0.153946,-0.2579022,0.101331875,-0.3006539,-0.09105079,0.23017709,-0.2171575,-0.3581654,0.017552907,0.13707288,0.2120034,-0.24788962,0.043791227,-0.21586573,-0.3817137,0.111025706,-0.034588963,0.08624661
ASN:ASN0079,0.20979889,-0.33233076,0.04975379,-0.12868927,0.007674449,0.15467922,-0.11498834,-0.2175354,-0.113658436,0.005324287,-0.13224043,-0.120298915,-0.10399738,-0.15469603,-0.36608753,-0.14268447,0.04823284,0.37521073,-0.3734057,0.12419718,0.02699577,-0.012092052,-0.58298653,-0.12564783,0.39207014,0.34687543,-0.16760668,-0.30705547,-0.3057939,0.046881765,0.06770788,-0.13649845,0.24241608,-0.2693549,-0.039721653,-0.068134524,0.036914073,-0.067286484,-0.29031456,0.15356211,-0.35625613,-0.13323317,-0.040529586,0.022378795,-0.13990486,0.18046655,-0.0024592571,-0.08216177,-0.056089483,-0.44906056,0.054212973,0.021868775,0.22907378,-0.19844948,0.09663186,-0.2340188,0.2773869,0.003838558,0.04681525,-0.26492327,-0.065233216,-0.13414627,0.07864062,0.14049777
ASN:ASN0080,0.2000652,-0.12544586,0.13561326,-0.3047523,-0.053458255,0.12709641,0.07874476,-0.1778842,-0.23218296,0.1334543,-0.2375904,-0.024963183,0.00832466,0.030940495,-0.2151579,-0.12615447,0.26593238,0.19645178,-0.22559465,0.45854235,0.27843788,-0.093897276,-0.36566508,-0.32371545,0.50756586,0.11812661,0.019493856,-0.2921816,0.06606591,-0.06426378,-0.13301569,0.0204068,0.27468893,-0.0072903363,-0.049636662,0.040141366,0.20054428,-0.22388226,-0.4977676,0.037338763,-0.088618524,0.17689085,-0.18306541,0.20786254,0.025736079,-0.14466056,-0.31642592,-0.17026725,-0.1579048,-0.2405023,0.12895595,0.5252604,-0.2959005,-0.36549833,-0.050244786,-0.10547306,0.1999577,-0.10085907,0.116782285,-0.39795795,-0.319862,0.46387565,-0.019096773,-0.010102182
ASN:ASN0081,-0.12990889,-0.13116468,0.10047603,-0.3740164,-0.13814312,0.21529862,-0.16615887,0.27819753,-0.11691683,0.40383646,-0.27975667,-0.080798365,0.10403085,0.054849803,-0.28568393,-0.07496075,0.07204129,0.56840795,-0.27403933,0.3515781,0.42953983,-0.27680495,-0.31810766,-0.07917215,0.21929255,0.13279185,0.1277176,-0.34514996,0.105024435,-0.07920554,0.014666544,-0.11793994,0.113888726,-0.13406679,0.12403962,0.04263145,0.09501866,-0.13677923,-0.2510861,-0.079602,-0.3040647,0.17620388,-0.14189123,0.1454612,-0.030249199,-0.051041115,-0.028489467,-0.22636628,-0.07537737,-0.25382552,0.30617693,0.35678205,-0.015074412,-0.40421176,-0.38307148,-0.18719661,-0.016008599,-0.16049209,0.3124045,-0.1257254,-0.20441777,0.16672252,-0.07632902,0.07122678
ASN:ASN0082,0.03837145,-0.25271678,0.2353073,-0.32687113,-0.13444379,-0.015753437,0.08809633,0.112991035,-0.026809333,0.22009665,-0.05754463,0.01893805,0.16384041,-0.11084027,-0.19066583,-0.14175287,-0.07424038,0.29871854,-0.26256883,0.39834252,0.27184507,0.12076525,-0.25039276,-0.08672436,0.3189961,0.13769072,0.07519254,0.020722209,0.0095457025,0.12678643,-0.08274572,0.051768787,-0.103170946,-0.09064066,0.09951524,-0.16652678,0.22274719,-0.063877955,-0.044551454,-0.022835577,-0.1986084,0.10106941,0.010583936,0.31321877,0.1180667,0.19474675,-0.29830605,-0.3506851,-0.15712908,-0.32483038,0.05582458,0.52760637,-0.30974954,-0.21143502,0.10944817,-0.082611546,0.18254772,-0.26408184,0.1247207,-0.20119725,-0.24336426,0.10724939,0.085810795,-0.14768492
ASN:ASN0083,-0.07089555,-0.19843839,0.120782554,-0.4452566,0.11012672,0.05447412,-0.122163676,0.31310275,-0.12769566,0.27473828,0.04648837,-0.16274199,-0.08002474,0.09776078,-0.34297183,-0.026838895,-0.012465347,0.5010426,-0.5149405,0.42663002,0.073923714,-0.10931008,-0.4324094,0.1639746,0.42122272,0.3272718,0.22230716,-0.081048205,-0.13306245,0.056883316,0.043324064,-0.2313253,0.3008488,0.21243139,0.10062218,-0.06260721,0.2447493,-0.22067364,-0.41691408,0.06227374,-0.45083478,0.21706866,-0.18411544,0.08949935,0.0009975614,-0.05045851,-0.30150652,-0.23803595,-0.2706397,-0.25227994,0.12742312,0.39994532,-0.07187918,-0.121779576,-0.019345583,-0.06818116,0.20772114,-0.09470545,-0.0071511604,-0.35970765,-0.2647882,0.24395527,0.122433186,-0.16827461
ASN:ASN0084,0.09528718,-0.12377339,0.48941734,-0.42046177,-0.057012618,0.038339026,-0.07479554,0.06937353,-0.22986935,0.25489357,-0.27576885,0.19702624,0.05335244,0.0759013,-0.31229487,-0.058611907,0.10136864,0.26677403,-0.2788589,0.37526625,0.2566866,0.22130896,-0.44569886,0.21108681,0.13016012,-0.122937545,0.18516557,-0.25614405,-0.083108,0.13383046,-0.10355851,-0.14916597,-0.085214846,0.13791497,0.08959648,-0.07234634,0.13978888,-0.18446589,-0.07321778,-0.08655264,-0.3078224,0.01051226,-0.0703185,0.1797133,-0.118917316,0.18903936,0.08625565,-0.2516481,0.019944113,-0.14061484,0.21872549,0.13495469,0.18351436,-0.10416133,-0.24990326,-0.061486002,0.18326744,-0.26917884,0.051899344,-0.23567203,-0.18263964,0.040525153,0.029359933,-0.13816074
ASN:ASN0085,-0.19608021,-0.19866794,0.24436717,-0.4058628,0.030889764,0.11592985,0.048774764,0.0557892,-0.2918758,0.34856895,-0.12409252,0.042899974,0.12790038,-0.039275814,-0.08941977,0.042017125,0.22464214,0.30060726,-0.3283016,0.5527962,0.32084364,0.09941196,-0.24179246,-0.06326102,0.29106793,0.261388,-0.06408904,-0.12629773,0.18309088,0.033306573,-0.14941998,-0.11695669,0.20555836,0.13109072,0.15018287,0.20386381,0.2875487,-0.34411183,-0.47653836,0.012470878,-0.09228349,0.14089741,-0.29192215,0.2080394,0.115114085,0.06210767,-0.29655498,-0.3578905,-0.12361162,0.04586046,0.07489366,0.40352148,-0.07302103,-0.41813475,-0.23615976,0.090618886,0.27102277,-0.0714023,0.12400468,-0.3154652,-0.46734664,0.19192472,0.27012023,3.113187e-05
ASN:ASN0086,0.010470913,-0.29821792,0.11877622,-0.2882179,-0.07311829,-0.053362567,-0.0837027,0.33687574,-0.2023616,0.20062575,-0.3612907,-0.045465756,0.17116085,0.22405338,-0.15081638,-0.20138194,0.21002631,0.4393684,-0.1978254,0.43549412,0.19438322,-0.116067424,-0.17882231,-0.030056106,0.24268472,-0.00888915,0.19792777,-0.24286342,0.0046559037,0.02146481,-0.1788726,-0.08314038,0.21449612,0.10352172,0.18580885,0.04524807,0.10010668,-0.12388864,-0.44777873,0.1680811,-0.35099694,-0.031525657,-0.081699796,0.25430286,0.0049004704,-0.053562175,-0.10174628,-0.24199636,-0.10866631,-0.25504956,0.06796207,0.32935578,-0.044000193,-0.31431633,-0.17996891,-0.12129454,0.07800789,-0.12542747,0.33568794,-0.20248555,-0.28998938,0.21234326,0.061295673,0.029792981
ASN:ASN0087,-0.13607623,0.011449988,0.22585815,-0.09962931,-0.42520586,0.09223516,-0.09127944,0.021987805,-0.19420177,0.2632729,-0.123337455,0.0113320695,0.16304944,-0.0010792192,-0.23866229,-0.15204655,0.11149718,0.43016517,-0.2409631,0.3491673,0.3831438,0.13749662,-0.19903684,0.074160196,0.29744667,0.06954542,-0.13895771,-0.2550601,-0.11844301,-0.09379088,-0.096625336,0.0710435,0.044092357,0.0148284,0.23961766,0.2844626,0.17444749,-0.21331926,-0.099820085,-0.16782776,0.0026987821,0.14281408,-0.06283507,0.2358571,0.13422267,0.17353036,-0.23779713,-0.3634325,-0.2175229,0.16838363,0.15763304,0.4546144,-0.3249844,-0.3054473,-0.27867258,-0.03646002,0.18067098,-0.16855668,0.19420165,-0.13090834,-0.50285244,0.03606856,0.28234756,-0.117311604
ASN:ASN0088,0.09985736,-0.2738167,0.034499094,-0.11153706,-0.23100005,-0.07616493,0.018441202,0.12336261,-0.06713225,0.006304115,-0.25081947,-0.22062795,-0.11470999,-0.0066402336,-0.33218685,-0.3068324,-0.023879431,0.11387827,-0.040118847,0.18525495,0.19903405,-0.15417995,-0.1790209,0.13283117,0.1535683,-0.15505262,0.094485186,-0.24864447,-0.021972632,0.16178486,0.041094225,-0.24025275,-0.030685296,-0.14653276,-0.2700848,-0.12630971,0.4452846,-0.1271556,-0.19595851,-0.18217915,-0.34439802,-0.09823105,0.12565689,0.011514247,0.21559979,0.32420483,0.11040143,-0.12540965,-0.0466196,-0.40826958,-0.10906424,0.14101706,-0.12905404,-0.37377205,-0.20041627,0.034921966,0.035773564,-0.12046133,-0.04750177,-0.31519127,-0.025666142,-0.12333556,-0.011619533,0.09724906
ASN:ASN0089,0.002169045,-0.16925767,0.10961942,-0.36098698,-0.22469851,-0.087115355,-0.28199473,-0.059745185,-0.044380117,0.18526383,-0.07564434,-0.034311384,0.15200692,-0.33299777,-0.32504034,-0.04188083,-0.035334453,0.41937664,-0.1527608,0.1827806,0.28514278,0.07593668,-0.29031256,0.14810267,0.11990465,-0.067005776,-0.1636344,-0.13999061,-0.27116552,0.0037206805,-0.078993,-0.004346304,-0.049550567,-0.074672855,0.052581828,-0.031422567,0.11336278,0.048966233,-0.07932083,-0.017256139,-0.30409342,0.080377385,0.16269487,0.07660135,0.10275194,0.17282742,-0.08282646,-0.04192285,-0.10724766,-0.51314825,0.0999505,0.09982,-0.11411152,-0.1709345,-0.2600539,-0.2799198,-0.14295152,-0.25687635,0.20572934,-0.21098787,-0.09517002,-0.16212733,-0.18029968,-0.027483834
ASN:ASN0090,0.024058424,-0.282038,0.106985435,-0.39140087,-0.14736347,0.045851387,-0.057407945,0.035402685,-0.15908396,0.13149375,-0.18520626,0.09216209,0.03714817,-0.08606686,-0.22052379,-0.24585144,0.013721301,0.36440518,-0.16789505,0.3303804,0.10973982,-0.18738383,-0.16474453,-0.10395195,0.12566245,0.34144357,-0.08252367,-0.1867915,0.08881735,0.09440171,0.033453275,-0.1368558,0.22459415,-0.0053889216,-0.18968387,0.0090126535,0.17679597,-0.15714398,-0.4027526,0.23612396,-0.39056897,0.029625256,0.03219456,0.063719384,0.14780837,0.2879939,0.015509463,-0.16741256,-0.29382566,-0.12610352,0.2992548,0.2610794,-0.06548867,-0.28383642,-0.07740446,-0.07748288,0.16925876,-0.005390427,0.21447046,-0.21354511,-0.153669,0.15628381,-0.00436174,0.15511769
ASN:ASN0091,-0.043811362,-0.031767175,0.121845394,0.012385611,-0.20681088,0.029472534,-0.04934539,0.23273745,-0.24452813,0.2120508,-0.1409698,-0.05690078,-0.012422242,0.018742548,-0.24746227,-0.22516598,-0.076563075,0.32948518,-0.25238922,0.24041317,-0.016065618,-0.19279246,-0.31923538,0.0842229,0.09144641,-0.035777424,0.11063894,-0.051578563,-0.016823372,-0.2967754,0.280815,0.003471371,0.18983424,-0.17667428,0.049006544,-0.16603889,0.21076345,-0.2850229,-0.24150828,0.01439748,-0.2145752,-0.010984548,0.010415873,0.02997616,0.09061958,0.111414365,-0.24998201,-0.41225767,-0.16783738,-0.31920215,0.17674714,0.49925607,-0.31445342,-0.31765142,-0.16375059,0.122682996,0.10105961,-0.21877344,0.1702652,-0.46543795,-0.39056906,0.16712692,0.18363287,0.109589696
ASN:ASN0092,0.020834416,-0.06632331,0.26368457,-0.28261632,-0.11925068,0.30886313,-0.09917504,0.1866042,-0.30213562,0.31797236,-0.32961264,-0.2383879,0.26252288,0.038166378,-0.30126014,-0.2594973,0.23097052,0.3358171,-0.24620782,0.4933253,0.48289385,0.055651087,-0.32864735,-0.10093997,0.35104862,0.13881946,0.12958828,-0.2286347,0.06636634,0.0018601043,-0.3425379,-0.005594347,0.08273323,0.14199075,0.26482522,0.34036082,0.0103272805,-0.37003955,-0.3396234,-0.18240932,0.048828103,-0.028955096,-0.22110319,0.283524,-0.051698618,-0.17532718,-0.035078093,-0.32395536,-0.036789987,-0.061260335,0.049005877,0.41161308,-0.1848851,-0.35499063,-0.39766428,0.0390421,0.18868342,-0.20734203,0.16072108,-0.13519861,-0.55704397,0.19846703,0.053028386,-0.018045958
ASN:ASN0093,-0.016471017,-0.044181462,0.064559765,-0.38178065,-0.051035307,0.104855515,-0.07676534,-0.03253921,-0.018116903,0.19971068,-0.09242531,0.22036698,0.13408376,0.22122055,-0.43260878,-0.18510765,0.18874794,0.23155113,-0.17034791,0.3609775,0.11969285,-0.24890833,-0.49938658,0.10897468,0.43925455,0.10752189,0.025696646,-0.22436084,-0.12460641,-0.13838924,0.12503439,-0.14024767,0.05881293,-0.07614503,-0.024818014,-0.20223142,0.22807492,-0.071650915,-0.2216731,-0.033057995,-0.20262527,0.19518661,-0.027902309,0.29994002,0.18889837,0.24688193,-0.23943329,-0.39620036,-0.24844389,-0.312832,0.13694298,0.42530397,-0.089856,0.05580234,0.06664876,-0.04303141,0.14128226,-0.017799709,0.19094902,-0.48291293,-0.14435796,0.11962424,-0.0649958,-0.093317606
ASN:ASN0094,0.06541399,-0.1688487,0.15972097,-0.44022384,-0.02446724,-0.019669449,-0.11081191,0.14095724,-0.35058317,0.39125922,0.13011807,0.013137621,-0.025920233,-0.031369712,-0.10653467,-0.024243638,0.20813754,0.3346495,-0.3220371,0.5271185,0.23222157,-0.15443917,-0.3044865,0.12419189,0.49563622,0.16893494,0.14337496,0.066333495,0.15997015,-0.097483076,0.09545909,-0.18755415,0.19147262,0.04912377,0.011607858,-0.112004004,0.14783622,-0.33185476,-0.48056754,-0.09785273,-0.32134444,0.19033872,-0.3378557,0.23800181,0.18160316,-0.1311523,-0.22731565,-0.21910061,-0.079001024,-0.37810737,0.19616564,0.42274702,-0.3036271,-0.24229696,-0.025756586,-0.16034889,0.24575183,-0.16834304,0.24200453,-0.47578603,-0.35382316,0.1893265,-0.16111465,0.041502066
ASN:ASN0095,0.27407223,-0.23676312,0.24460836,-0.20051356,-0.29630765,0.10169061,-0.016141562,-0.012177887,-0.24860808,0.1747705,-0.22777133,-0.010114073,0.17931852,-0.044989593,-0.13444926,-0.30852544,0.013091229,0.370268,-0.18389884,0.38628033,0.08844334,0.24678421,-0.0787669,0.079603426,0.24056806,0.25021172,0.10357358,-0.097694606,0.05487836,0.26895398,-0.36651745,-0.15452844,0.15231808,0.071282156,0.09198627,0.17069715,0.10975909,-0.30023995,-0.08775825,-0.027394818,-0.21982755,-0.093671404,-0.1309907,0.18527159,-0.02012438,-0.019908864,-0.009859962,-0.41296548,-0.1699057,-0.10644896,0.07674571,0.3152129,-0.20533858,-0.40294266,-0.15329416,-0.018331781,0.21824348,0.030653,0.1830088,-0.29129422,-0.43040085,0.16285598,0.17819029,0.0030810258
ASN:ASN0096,0.045970973,-0.06477274,0.14676209,-0.21784641,-0.22080079,0.055049136,-0.043286465,0.083679974,-0.18865408,0.20333566,-0.051199,-0.03827171,0.029618753,-0.024668837,-0.31061473,-0.26420343,0.035356097,0.24724694,-0.12735598,0.36140707,0.18309863,0.057639092,-0.18953922,-0.0944285,0.18838723,-0.096041776,0.11754677,-0.0096522765,-0.26487133,0.08659153,-0.23478249,-0.039474122,0.06186245,-0.18571705,-0.13805863,-0.024810307,0.39315557,-0.30492005,-0.0070487284,-0.11870748,-0.2917708,0.01080542,0.08162308,0.06768213,0.107308105,0.33379024,-0.04138963,-0.33835632,0.15709446,-0.3178129,-0.2523076,0.31534246,-0.14343159,-0.23266245,-0.21000032,-0.03843977,0.016722083,-0.3118048,0.12509663,-0.107339144,-0.253877,0.08553209,-0.103218324,0.0061414833
ASN:ASN0097,0.044782545,-0.17036107,0.27876645,-0.3301539,-0.032543894,0.21728285,-0.042056125,0.04414509,-0.24024181,0.242577,-0.035640135,-0.064980105,0.17804946,-0.10804242,-0.28287953,0.024070937,0.20140713,0.3936853,-0.30146384,0.38709342,0.06846229,-0.14299537,-0.3541663,0.15543544,0.35515404,0.16831936,0.07532555,-0.13403639,0.08854836,0.0009925746,0.070201844,-0.08645848,0.3293497,-0.007020141,-0.04227961,-0.104280286,0.13544448,-0.2952736,-0.611409,0.1227503,-0.044130675,0.11022448,-0.24424797,0.1099095,0.23656034,-0.18881077,-0.09256982,-0.46866012,-0.11774413,-0.15198334,0.1804316,0.36435768,-0.2894102,-0.22006662,-0.19187576,-0.031285174,0.16931005,-0.2034762,0.4323913,-0.32962766,-0.20516713,0.15930116,0.09246945,-0.02395206
ASN:ASN0098,-0.123211294,-0.15891145,0.31084532,-0.09328134,-0.098771006,0.10738113,0.05803464,0.10851949,-0.122704364,0.33147258,-0.25755516,-0.17696989,0.064307936,0.13694541,-0.12874573,-0.26418978,-0.09891464,0.309268,-0.173035,0.56519216,0.28374872,-0.10226671,-0.17918296,-0.03523132,0.30096266,-0.039045244,0.0943053,-0.2521767,0.029725019,-0.106672995,0.05657811,0.099680066,-0.08247762,-0.22312975,0.021370905,-0.008101369,0.13874899,-0.45347813,-0.24755526,-0.15524052,-0.020953618,-0.009564568,-0.12530637,0.11455369,0.056629777,-0.06097603,-0.25443068,-0.5561322,-0.28148773,-0.12494453,0.12307816,0.5460709,-0.32945856,-0.26911768,-0.4681715,0.06738118,0.27639085,-0.17823914,0.02978172,-0.3139141,-0.41169682,0.2439448,0.0064312215,-0.04433227
ASN:ASN0099,0.15717873,0.090154134,0.10040415,-0.24061686,-0.16770443,0.2805799,0.020310126,0.14033723,-0.03790122,0.18510978,-0.15315036,0.004873977,0.13759238,-0.063563295,-0.18577656,-0.05355834,0.15418532,0.25304505,-0.29156426,0.5112677,0.45034045,-0.02065035,-0.35055423,0.07109111,0.13515148,0.2048795,0.1886009,-0.19004098,-0.03526578,-0.09318363,-0.035408974,0.30943117,0.28856736,-0.01201259,0.10310722,0.033870064,0.1469957,-0.37351242,-0.33533636,0.1234404,0.02485596,0.1635699,-0.053741906,0.12423738,0.0024903663,-0.1778621,-0.13082653,-0.3463535,-0.12666248,-0.2527729,0.1894823,0.28931147,-0.19433223,-0.36807913,-0.08260631,-0.07859541,0.16108145,-0.05654758,0.4306148,-0.4892682,-0.54334104,0.3115075,0.21468653,0.21672477
ASN:ASN0100,0.16535486,-0.052897952,0.28727782,-0.00060761964,-0.17664357,0.1334437,-0.061842058,0.030783748,-0.058754552,0.07752755,-0.38431355,-0.08971369,0.198229,-0.32172036,-0.13100113,0.09289163,0.25570756,0.43436387,-0.09669153,0.08691103,0.2011966,0.016648985,-0.43880332,-0.050642386,0.26716027,-0.17097098,0.013070771,-0.10111638,-0.17407188,-0.2371325,0.12540424,0.13324347,-0.12663536,-0.16672914,0.1412036,-0.062157802,0.15930176,-0.096061625,-0.20653152,0.1715862,-0.249546,0.21329479,0.028052365,0.21859044,-0.15370968,0.30829653,0.027853796,-0.26664326,0.00043928687,-0.405395,-0.19139071,0.5126355,-0.27013153,-0.06494939,-0.3454594,0.013379038,-0.07826336,-0.2356821,0.14888686,-0.1313744,-0.010898012,-0.03766735,0.07650414,-0.038682424
ASN:ASN0101,-0.013074124,-0.18661365,0.1028078,-0.46468526,-0.107336245,-0.03938408,-0.1297628,0.19821672,-0.18472052,0.3871848,-0.028321614,0.016964344,-0.04869439,0.1431221,-0.42349362,-0.10209773,0.1428115,0.3883814,-0.43901268,0.46740013,0.18876325,0.003178655,-0.5442601,-0.012462908,0.5061171,0.33761114,-0.13171437,-0.12267175,0.08200269,-0.0041013467,-0.008173222,-0.5132133,0.17413262,0.04336118,0.06973876,0.050829373,0.043888815,0.10780765,-0.19015896,-0.14273193,-0.5061987,0.08780872,-0.2662515,0.22672036,0.1221792,0.2730304,-0.2295462,-0.16962112,0.03233042,-0.2245615,-0.023031382,0.51711667,-0.016281921,-0.059626468,0.117261134,-0.19867416,-0.037102565,-0.15181482,0.07357028,-0.13060409,-0.2300948,0.35305327,0.00033378694,-0.31733266
ASN:ASN0102,-0.0351868,-0.059317105,0.27968284,-0.12046113,-0.1351143,0.33858922,-0.026439643,-0.01609458,-0.20655867,-0.023950636,-0.1290055,0.1324749,0.1697752,-0.067348264,-0.28058898,-0.18442474,0.022532545,0.33790058,-0.23367612,0.2943125,0.07445056,0.10408126,-0.2763788,-0.00015806912,0.04497571,0.26802793,0.06448437,0.0063518286,0.02287941,0.07951433,-0.1710434,0.026125718,0.16890106,0.06270756,-0.030744106,0.08275147,-0.07565569,-0.18498488,-0.28860405,0.08255915,-0.15160234,-0.09052218,0.15419038,0.24588875,0.08485128,0.14249526,-0.030270388,-0.48553875,-0.09297787,-0.3643614,-0.012570012,0.35864973,-0.27987581,-0.28541678,-0.15336955,0.111747645,0.15075405,-0.1517834,0.35180473,-0.29745454,-0.4155337,0.19719066,0.13922043,0.12695429
ASN:ASN0103,-0.042638686,-0.07916421,0.24287345,-0.24275967,-0.24325518,0.0773082,-0.15150283,0.059521887,-0.1957319,0.037659448,-0.28376278,-0.01717749,-0.10432759,0.1440834,-0.38956973,-0.25528535,0.064972006,0.3662577,0.025420172,0.43801847,0.14106607,-0.116358735,-0.31641975,0.0965624,0.11316964,0.13131356,-0.050398946,-0.1873897,-0.089509614,-0.25929075,0.15930691,-0.15930875,0.08877328,-0.13103344,0.1646374,-0.16829047,-0.0029887338,0.0511375,-0.17941572,0.041491363,-0.086689495,0.0605402,0.053055305,0.33513007,0.27114794,0.11273969,-0.18661547,-0.4755775,-0.33902103,-0.34273946,0.096999995,0.25066307,-0.22206077,-0.355254,-0.14330564,-0.047198825,-0.11332241,-0.103755146,-0.015795065,-0.4520507,-0.23682575,0.058756582,0.02392688,-0.06710618
ASN:ASN0104,0.16991472,-0.28536025,0.24093649,-0.1935633,0.007509047,0.35195592,0.10540425,-0.12403731,-0.17984305,0.25072756,0.06975506,0.11516502,-0.03742832,-0.18309698,-0.16130534,-0.10179295,0.20188321,0.4135253,-0.20153774,0.44088957,0.0666092,0.17410348,0.03788167,0.191077,0.10617668,0.26785105,-0.3274803,-0.03842244,0.03982716,0.23512214,-0.17774029,-0.0085362075,-0.060544573,-0.029523015,-0.03970053,0.0411978,-0.040325508,-0.41389132,-0.15876637,-0.018976066,-0.002431974,-0.18035203,0.11246165,-0.020617198,0.09781886,0.18859255,0.13315827,-0.37012962,-0.1431053,-0.27621067,0.06226367,0.079642795,-0.17549695,-0.2706182,-0.34869412,-0.18479542,0.09776288,0.04262035,0.2676288,-0.40314847,-0.37319806,0.06595983,0.2189079,0.078571394
ASN:ASN0105,0.035546727,-0.40134364,0.11789744,-0.36678064,-0.23421685,0.045602884,-0.29691586,0.1055209,-0.16734198,0.2660486,-0.21003957,-0.20056447,-0.07058017,-0.10870309,-0.19156636,-0.07120443,0.1504261,0.59563714,-0.2476831,0.43475944,0.10568957,-0.07283102,-0.57550955,0.00995443,0.26165685,0.12528189,0.014613419,-0.089354366,-0.004483875,-0.14873604,0.13089105,-0.007420033,0.051302575,-0.15862253,0.22648887,-0.211655,-0.16727634,-0.07151036,-0.24570419,0.119380206,-0.20413268,-0.070896,-0.07157925,0.2327891,0.026480692,-0.033408575,0.009110006,-0.023718124,-0.24307251,-0.42489824,0.09773908,0.32141355,-0.16076973,-0.18144038,-0.043935284,-0.07287823,-0.0035911214,-0.26720598,0.22580124,-0.2932646,-0.08588311,-0.15690608,-0.10959133,0.08363351
ASN:ASN0106,0.09064323,-0.22693178,0.26735964,-0.50477445,-0.21290344,0.22806305,-0.092940986,0.011284643,-0.41161418,0.39756885,-0.12941445,-0.080801755,0.077037446,0.05408951,-0.18459016,-0.13568376,0.11077787,0.42536646,-0.21312726,0.55779576,0.05243965,-0.20405586,-0.19887339,-0.071825355,0.2664449,0.36617008,0.33062425,-0.067983165,0.1722013,0.05374952,-0.111542724,-0.17598514,0.3136458,0.105833754,0.05546349,-0.24486344,0.078476995,-0.2932218,-0.5027773,0.09173584,-0.31583834,-0.02185844,-0.31379178,0.14532933,0.016690018,-0.24900432,-0.08773657,-0.2817802,-0.2263259,-0.28854984,0.086947344,0.40374273,-0.27122402,-0.36122423,-0.14115,0.034758702,0.39855874,-0.08725956,0.15882137,-0.40707433,-0.26264727,0.13364829,-0.08053184,0.09930093
ASN:ASN0107,-0.05743295,-0.3828562,0.03699427,-0.08270679,-0.047192376,-0.06205335,0.062417753,-0.104367614,-0.13193072,0.03733476,-0.073807605,0.27158722,-0.05633958,-0.24692218,-0.29740387,-0.15868646,0.034623943,0.4729245,-0.27630648,0.013846706,0.04885934,0.18664618,-0.21950597,-0.091430016,0.19428036,-0.06913295,-0.3367739,-0.07547571,-0.3033724,0.17686985,-0.30748308,0.02443167,0.036784254,-0.119110666,-0.00062809006,0.017587917,0.1926224,-0.21249643,0.117157,0.11812086,-0.38672101,-0.07973527,0.13758187,0.13648126,0.01510031,0.35648927,-0.077621296,-0.04197854,0.03205271,-0.43851882,0.022498604,-0.18991657,0.17330502,-0.23893192,-0.33616167,-0.06588491,0.25109178,0.016450806,0.089876086,-0.081934154,-0.18787518,-0.046253618,0.11862801,0.05354558
ASN:ASN0108,0.27798653,-0.10765005,0.10857001,-0.3221391,-0.023937013,-0.045646075,-0.13551648,0.28104085,-0.12823705,0.25638092,-0.12741065,-0.11848978,0.044685774,-0.18725625,-0.4490478,0.06697439,0.17823385,0.39321494,-0.31326672,0.48920286,0.2627117,-0.032294903,-0.4795738,0.028505241,0.20113198,0.18332931,-0.13353318,-0.17083476,-0.024224909,-0.18438639,0.14662357,0.009001999,0.21247898,-0.12754251,0.16843545,-0.15219447,0.08822268,-0.06857226,-0.39642742,0.11084797,-0.29181308,0.060762543,-0.24053161,0.10547446,-0.0068339948,-0.04015317,0.042435966,-0.062823474,-0.16976476,-0.4398915,0.0467753,0.071456045,0.027922573,-0.13109301,-0.04072248,-0.26459086,0.08136307,-0.3339991,0.40013906,-0.43330145,-0.1757873,-0.064268306,-0.06831656,0.11026326
ASN:ASN0109,0.111543864,-0.18290609,0.2883542,-0.19143009,-0.26460636,0.0976743,0.042528626,-0.034358278,-0.22904058,0.114569485,-0.35606897,-0.112761445,-0.097411335,0.1595321,-0.4040551,-0.098640904,0.11813204,0.28788987,-0.19370453,0.41513267,0.086127035,-0.09553301,-0.19390358,0.25976145,0.24188647,0.032679275,0.06950048,-0.3289013,0.07120526,-0.18796726,-0.13089707,-0.048269406,0.07036217,0.07210389,-0.09223411,0.12997963,-0.010046346,-0.1374253,-0.38506195,0.24346027,-0.14652644,-0.16618171,-0.035646208,0.016825771,0.04215702,0.11837255,-0.0062169214,-0.26721165,-0.27037016,-0.2395303,0.006757254,0.022156334,-0.011991342,-0.28592,-0.10312311,-0.23146091,0.0453878,-0.038833186,0.38175985,-0.33696082,-0.17672053,0.16120307,0.18995245,0.110599846
ASN:ASN0110,0.04134604,-0.16219017,0.09320801,-0.16663392,-0.025684258,0.22203633,-0.13906167,0.101279974,-0.14105944,0.2820311,-0.27378514,-0.19387387,-0.011198699,0.04314437,-0.43384832,0.06113995,0.41034484,0.48346558,-0.2486257,0.3722954,0.2335224,-0.31922802,-0.47958785,-0.04418866,0.3388089,-0.025491929,0.048303638,-0.18789501,-0.08166296,-0.21574819,0.098134995,-0.067873724,0.18781476,0.021716142,-0.015601456,-0.04983723,0.016851267,-0.23335804,-0.4521893,-0.124542624,0.04677824,0.0013102238,-0.2784426,0.2844219,0.0709764,-0.1992982,-0.17144217,-0.36143583,-0.118939124,-0.2603118,0.16020271,0.19682823,-0.107260436,-0.4485303,-0.052027423,-0.22890373,0.041634135,-0.04527578,0.3185053,-0.3821587,-0.40427336,0.27197224,-0.051083848,-0.1875953
ASN:ASN0111,0.13286567,-0.32225966,0.29152265,-0.09190732,-0.1703108,-0.14026788,-0.06808949,-0.058067966,-0.10408542,0.051117815,-0.22077282,0.1607573,-0.022802867,-0.02741525,-0.24514058,-0.09973329,0.05681135,0.33228886,-0.34933028,0.31141192,0.25936136,0.24952382,-0.103816554,0.054665033,0.1461767,-0.018387908,-0.085572556,-0.048643533,-0.12252638,0.04266423,-0.0414696,-0.022227483,-0.039997544,0.23952669,-0.015833158,0.27968326,0.2681125,-0.14402087,-0.20867717,-0.015678523,-0.14778402,0.0073237256,-0.10859542,0.24070029,0.052481536,0.32727224,-0.20855023,-0.19969709,-0.228937,-0.13421549,0.120553315,0.21429934,-0.19627635,-0.13603018,-0.12118515,-0.08626134,0.15446804,0.064807065,0.2004957,-0.2719085,-0.36707506,-0.13916345,0.29582304,-0.1759077
ASN:ASN0112,0.19246693,-0.14487074,0.10780356,-0.01774456,0.022384468,0.0044502793,-0.26631597,0.13447765,-0.043294717,0.13201009,-0.13302016,0.09061867,0.04423866,-0.13650352,-0.40650284,0.0056752805,0.2907446,0.29280955,-0.094808616,-0.04929806,0.041421495,0.06212146,-0.4001201,0.19777295,0.25698072,0.048694853,0.032527365,-0.07600667,-0.14739108,-0.14170417,0.19979952,-0.083955765,0.16249055,-0.0643668,0.029208764,-0.123677544,0.15621842,0.12715945,-0.032798406,0.016532067,-0.45001087,0.0060414644,0.084660746,0.19970363,-0.16946328,0.5122869,-0.10433487,-0.13018528,-0.3611053,-0.5330435,0.0033339984,0.24737525,-0.0861464,0.037477847,-0.21059035,-0.11931052,0.13491769,0.0022998056,0.3926921,-0.3328213,-0.0330013,-0.15321267,0.035879496,0.09540054
ASN:ASN0113,-0.17704387,-0.06313345,0.3010333,-0.556647,-0.12739725,0.23766825,-0.08482487,0.100673765,-0.49701166,0.20476766,0.05840922,0.037693426,0.037186507,0.21852621,-0.3092104,-0.10591759,0.20332022,0.42698658,-0.25618878,0.6105851,0.024603192,-0.041466463,-0.6210105,0.04460973,0.45101684,0.32030576,0.03814859,-0.03182746,0.07997329,-0.11843421,-0.031370223,-0.22351637,0.20532028,0.08508055,0.3173755,-0.12605098,-0.036879215,0.0067860032,-0.6924238,0.09025924,-0.1322022,0.11925671,-0.12003465,0.2873816,0.009103338,-0.18893848,-0.07203204,-0.34367314,-0.18629193,-0.26109126,0.15035252,0.36897102,-0.074851535,-0.31601915,-0.08519225,0.07660099,0.29495302,-0.03789118,0.099472694,-0.46627918,-0.23749502,0.1672278,0.021068215,0.0032205859
ASN:ASN0114,-0.08301038,-0.11879224,0.2647769,-0.242186,0.0056312564,-0.17596969,0.053961307,0.18230297,-0.16301988,0.12335521,0.052881233,0.12588409,0.32191923,-0.081833646,-0.2833354,-0.072319455,0.034974936,0.4304959,-0.3205806,0.12977174,0.17971812,-0.14249696,-0.41696486,0.06328723,0.33773574,-0.2531122,-0.02919051,-0.13404167,-0.22876026,-0.068240106,0.23415042,0.07999923,-0.03362884,-0.2054444,0.13765669,-0.02227275,0.25921744,-0.080988325,-0.22251527,0.13194746,-0.11296011,0.20904362,-0.27756837,0.12546133,-0.035371907,0.2146441,-0.3426622,-0.16298077,-0.23768325,-0.38194993,0.17386602,0.43936425,-0.25662085,-0.046840005,0.067291506,-0.260085,-0.112812735,-0.2585505,0.28470546,-0.37566295,-0.42629477,0.32351795,0.06587952,-0.008393431
ASN:ASN0115,0.24339275,-0.107418776,0.3191135,-0.12378001,-0.1284296,0.16144097,0.21789823,-0.0526977,-0.09455884,0.06346674,-0.22584315,-0.0137640145,0.13650173,0.078677535,-0.08431865,-0.04563557,0.048002828,0.25060496,-0.26603645,0.34379724,0.17828499,-0.07690854,0.0033751372,0.045650672,0.0781324,0.14397258,0.3158008,-0.108691625,-0.008840372,-0.09223074,0.067625195,0.041633826,0.16272062,0.11422749,-0.13445053,-0.070123844,0.14633605,-0.3462925,-0.34330344,0.026979815,-0.26366588,0.07974573,0.0015383316,0.08751783,-0.1269529,0.08490029,-0.124586426,-0.24199837,-0.14506269,-0.46912396,0.20080422,0.26312783,-0.25101954,-0.34362885,-0.15740669,-0.19685881,0.11299368,-0.046515275,0.2271605,-0.5623564,-0.52813303,0.27175602,0.22155191,0.18944079
ASN:ASN0116,-0.18923925,-0.33542782,0.14459859,-0.1965714,0.02058448,0.08400893,-0.22892486,0.19275154,-0.2469466,0.10975669,-0.11324683,-0.001784078,-0.053636193,0.16739741,-0.20226024,-0.23793648,0.23209068,0.3183501,-0.31878453,0.3100738,0.048780404,-0.10963569,-0.39181465,-0.04229614,0.27199373,0.25919768,0.10787099,-0.16182335,-0.015431783,0.16117397,-0.09310714,-0.10064805,0.053881254,-0.012152051,-0.08044736,-0.02576364,0.1901973,-0.25636205,-0.4792794,0.011314903,-0.08839763,0.07309271,-0.007179229,0.13441898,-0.049450506,0.07459043,-0.0056829727,-0.21873568,-0.11607132,-0.16403173,-0.11816464,0.39895916,-0.1482693,-0.32506025,-0.21282503,0.10820148,0.22331652,-0.042289764,0.1320341,-0.28211504,-0.32656333,0.05081296,0.13350822,-0.06723207
ASN:ASN0117,-0.053264216,-0.26330325,0.28140998,-0.49547789,0.018339224,0.15833893,-0.0046870206,-0.12672713,-0.25758752,0.32944763,-0.16840263,-0.083326355,0.114737675,0.023601873,-0.17526227,-0.13839427,0.07960159,0.4201705,-0.36826843,0.41634053,0.1373195,-0.020155875,-0.35199654,0.019516451,0.44615546,0.32831874,0.046136502,-0.25198847,0.14199147,-0.04415816,0.037515186,-0.3045668,0.10362695,-0.026698085,0.094454706,-0.14651889,-0.12421745,-0.14554022,-0.5014099,0.13094492,-0.1884487,0.10504147,-0.06890602,0.21854953,0.17114472,-0.046455834,-0.19945392,-0.4160101,-0.14228345,-0.14882246,0.27657977,0.42704502,-0.0587169,-0.2727736,-0.07771315,-0.009883324,0.27851295,-0.1947399,0.2011616,-0.30184495,-0.20888895,0.20409088,0.0068418025,-0.08506166
ASN:ASN0118,-0.33284715,-0.012632545,0.26256698,-0.40206063,-0.17997317,0.1444204,-0.18861517,0.07357643,-0.2741782,0.2419433,-0.09630569,-0.07450824,-0.14154835,0.10112909,-0.30954123,-0.16513541,0.014237803,0.24190512,-0.44410935,0.45348522,0.18882059,-0.07566521,-0.47740257,-0.020325826,0.39335963,0.19493307,0.08625584,-0.09444002,0.19074331,-0.038635883,-0.11325856,-0.1273899,0.21733777,0.13205758,-0.080257095,-0.15178277,0.23687212,-0.16880967,-0.49872214,0.03178769,-0.2682162,0.17668836,-0.15589811,0.07612922,0.1518927,-0.274028,-0.19529969,-0.15678492,-0.02409905,-0.26495567,0.08661108,0.427649,-0.21556717,-0.48240748,-0.1437434,0.15982658,0.265634,-0.24630573,0.1680721,-0.28039333,-0.2706461,0.26436046,0.012885248,-0.008498013
ASN:ASN0119,-0.14732155,-0.096069835,0.22520095,-0.30919257,-0.12677208,0.14880098,0.032660887,-0.093326986,0.015807983,0.2194121,-0.19911765,-0.25056812,-0.030398525,-0.06675422,-0.2105242,-0.0015487454,-0.018085198,0.34913224,-0.33598587,0.42870173,0.2823533,-0.16536252,-0.3343075,0.35877225,0.24287361,0.08360889,0.019511176,-0.275204,-0.031608623,-0.12370347,0.03390319,-0.04794255,0.097329035,-0.020517292,-0.03556449,-0.13232167,0.065064244,-0.177469,-0.28729555,0.020125773,-0.0919447,-0.079640895,0.04856082,0.1720403,0.18192269,-0.22060852,-0.3694223,-0.42390648,-0.3129167,-0.17097288,0.26591143,0.33531007,-0.101929516,-0.43967435,-0.2074857,0.13391308,0.309327,-0.06957012,0.18906166,-0.24999413,-0.35058045,0.2545499,-0.047055572,0.030549746
ASN:ASN0120,-0.00037310334,-0.18677206,0.33981302,-0.10068488,0.035705,0.007448111,-0.044095013,-0.379114,-0.22702539,0.07197602,-0.1787589,0.1015478,-0.126445,-0.19348654,-0.014347476,-0.07679562,-0.061543636,0.21132642,-0.30584112,0.031764783,0.1443126,0.19651634,-0.15838608,0.0458024,0.16530918,0.046638682,-0.123033606,-0.12233751,-0.2059168,0.21602888,-0.1290834,-0.07012986,-0.12762617,-0.044249065,-0.21679208,-0.22010672,0.22997402,-0.044956155,-0.10115448,0.052807268,-0.24527957,0.10912853,0.22383812,0.059143033,0.01629484,0.38190266,0.044382256,-0.41322786,-0.12098076,-0.16996445,0.012648924,-0.027761664,0.06001572,-0.5362558,-0.21131887,0.20022906,0.37311155,0.060897533,0.050883222,-0.21821433,-0.24765599,0.057361044,0.14982945,-0.01034808
ASN:ASN0121,-0.0532494,-0.22016676,0.1879333,-0.36289176,-0.26346684,-0.00097285537,-0.27446872,0.3984383,-0.19294252,0.32170734,-0.07912161,-0.240024,0.08900794,0.116836436,-0.21907899,-0.29144308,0.24764921,0.39991215,-0.24286523,0.56950146,0.4104634,-0.19960044,-0.2298242,0.10127737,0.36357406,0.096515544,0.17977993,-0.19003172,0.045507085,-0.062310643,0.0066039655,-0.22883707,0.027868414,-0.0877178,0.21723557,0.059974663,0.0005426858,-0.03570641,-0.25355,-0.24118233,-0.101587385,-0.06209748,-0.17079826,0.27779263,0.10442731,0.081205666,-0.019019034,-0.28576893,-0.036981843,0.01788206,-0.059363116,0.47592264,-0.27717456,-0.38262036,-0.25795275,-0.050322864,-0.054776877,-0.28393,0.35264984,-0.19601275,-0.41775227,0.10285231,-0.1935759,-0.16839498
ASN:ASN0122,0.13279451,0.0338486,0.27922776,-0.3066662,-0.4937285,0.062320985,-0.05033468,-0.021866463,-0.01790736,0.111750856,-0.19950247,-0.23751652,0.17532572,-0.11359247,-0.16613315,0.055984408,-0.17730492,0.2437256,-0.03774091,0.53506947,0.28239354,0.12347585,-0.27689296,0.29664823,0.038699627,-0.015102994,0.1347551,-0.36389288,-0.083683446,-0.050232466,-0.107161015,0.14937545,-0.07310716,0.07689654,0.013548655,0.15296313,0.020851828,-0.22648636,-0.22774637,0.101971075,0.020434203,-0.005383803,0.105647735,0.14051628,-0.17415808,0.14184248,0.09131883,-0.25149888,-0.1870592,-0.21390589,-0.038815502,0.24208479,-0.25634494,-0.3616215,-0.27195343,-0.14710586,-0.096687056,0.00041877196,0.09165014,-0.27217868,-0.3889288,0.134085,0.25156173,0.07553232
ASN:ASN0123,0.013244164,-0.12052396,0.20198959,-0.19374615,-0.13773146,0.0869498,-0.177368,0.065205865,-0.0349097,0.27482453,-0.2680763,-0.22750464,-0.048145514,-0.047839496,-0.24939159,-0.2063525,-0.012602422,0.23713127,-0.30850577,0.5615219,0.25412446,-0.1690517,-0.38514838,-0.01496715,0.41514385,0.22849204,0.17501953,-0.23187079,0.045665253,-0.0078521315,-0.105097525,-0.16002275,0.14865993,-0.022395404,-0.17251661,-0.10133793,0.2114515,-0.11608298,-0.23944475,-0.016544947,-0.1217078,0.19364946,-0.071652785,0.09091675,0.08371001,-0.05553917,-0.21874839,-0.36065844,0.07546379,-0.19095583,0.010357608,0.3381549,-0.15337542,-0.29648244,-0.22053547,-0.09867856,0.33798757,-0.12621604,0.08851195,-0.31349546,-0.20138107,0.087685026,0.0034829688,-0.14880423
ASN:ASN0124,0.00061378215,-0.20224732,0.31056195,-0.008447041,-0.39020553,-0.013123344,-0.14291628,0.11852659,-0.13669242,-0.16254044,-0.33215275,0.1545789,0.029952658,-0.048495334,-0.11026557,-0.10545852,0.15773676,0.22254154,-0.23276968,-0.08910017,0.1963052,0.32846692,-0.34321222,0.16695,0.09411564,-0.37744147,-0.19151726,-0.14973725,-0.08962902,-0.16610341,0.00079838844,0.19151412,-0.050223187,-0.03067176,0.04673175,0.045302633,0.13027574,-0.06516778,-0.04166753,0.25153401,-0.10175923,-0.003307544,0.12699649,0.21903214,0.04063798,0.63297373,0.204317,-0.15539499,-0.02945089,-0.16250363,-0.10399128,-0.0084525375,-0.11583705,-0.18012184,-0.30160746,0.023464829,-0.04003074,-0.039887283,0.3682006,-0.21106492,-0.039239235,-0.31871334,0.40232325,0.07662851
ASN:ASN0125,0.0087128375,-0.1408441,0.20421787,-0.22613214,-0.16593182,0.10095037,-0.19508159,-0.06490644,-0.09297516,0.16869694,-0.15862899,-0.041477125,-0.041570455,-0.13064554,-0.19776697,-0.05560447,0.013776971,0.14987919,-0.15453902,0.17057583,0.40794218,-0.3829422,-0.30118102,0.27558643,0.2591086,0.10770525,-0.059236314,-0.1358386,0.02480686,-0.027209945,0.11485162,-0.21263327,-0.16746998,-0.05282085,-0.014271264,-0.1288812,0.32672462,-0.13437384,-0.23748834,-0.09260084,-0.3069295,0.00832952,-0.053297553,0.13193928,0.2063284,0.12676053,-0.04296618,-0.19145657,-0.3829046,-0.27923605,0.6527202,0.27340093,-0.07206699,-0.20275904,-0.2278974,0.011622428,0.15697466,0.10574421,0.27350053,-0.36534443,-0.09380838,0.046910465,0.055654597,-0.083269395
ASN:ASN0126,-0.12586132,-0.05362764,0.20713307,-0.36453283,0.015735766,0.14587717,-0.22978766,0.121414825,0.053754956,0.20896693,-0.10426137,-0.0151111325,-0.17682989,0.09231469,-0.39237705,-0.03400292,0.16517363,0.2680767,-0.34074152,0.26795346,0.18926892,-0.118524246,-0.4445971,-0.018047743,0.20938967,0.17596242,0.08502914,0.033929043,-0.19317892,-0.033070788,-0.066104874,-0.1405636,0.19886307,-0.10487512,0.03919517,-0.115891874,0.2986381,-0.049259055,-0.06283837,0.05585122,-0.3580345,0.25344104,-0.027882604,0.1832682,0.13068096,0.3792988,-0.16643709,-0.4889056,-0.2617758,-0.20095484,0.07644862,0.51203126,0.09107533,-0.09059437,-0.17464463,-0.23753208,0.045025542,0.08884919,0.11342936,-0.22454257,-0.11099902,0.048228662,0.012914946,-0.21152157
ASN:ASN0127,0.056265518,-0.35420454,0.16315605,-0.24553797,-0.05303827,-0.11243394,-0.10984133,0.030130485,0.009228239,0.10300376,-0.15862906,0.0048499717,0.15363264,-0.06596012,-0.26898903,-0.24500304,-0.004195195,0.18050663,-0.2654003,0.12338949,0.21979089,0.05412193,-0.045796555,0.02725902,0.1724882,0.14300638,-0.20573144,0.008602028,0.06481161,0.13401006,-0.1459341,0.00181984,0.0013780311,0.0364737,-0.083562724,-0.057473805,0.1698221,-0.23870929,-0.18593152,-0.0751756,-0.2667256,-0.07342559,0.2153628,0.21438046,0.12463782,0.061071698,-0.11396386,-0.29580572,-0.18823346,-0.07181996,0.037475597,0.43028617,-0.14881225,-0.38865596,-0.37094223,0.07106839,0.096390896,-0.16128096,0.18036704,-0.17230155,-0.32450563,0.19230253,0.12158019,0.015663419
ASN:ASN0128,-0.056451697,-0.1367924,0.16708314,-0.45557272,-0.20563582,0.10839681,-0.20385736,0.053767808,-0.30411956,0.15864708,-0.20671542,0.043546356,0.0061873714,0.031592377,-0.35027194,-0.11174611,0.2860635,0.35065344,-0.46785086,0.43952346,0.16609408,0.12016361,-0.387798,0.12957284,0.22570428,0.1570908,-0.020071158,-0.054151133,-0.1287042,0.082450144,-0.260147,-0.0337397,0.012714989,0.14133343,0.2113477,0.045321878,0.101288445,-0.07842763,-0.38468388,-0.044540316,-0.17883387,0.084349416,-0.036684275,0.36824858,0.043565627,-0.217765,-0.2473777,-0.45783558,-0.0687188,-0.13944112,-0.051493436,0.30393305,-0.19680323,-0.33884406,-0.16906537,0.15641956,0.044234995,-0.103274114,0.09430129,-0.09492953,-0.31106922,0.08074184,0.15141256,-0.16697007
ASN:ASN0129,-0.016230049,-0.127742,0.19773243,-0.0847338,-0.21799308,0.033214092,-0.28722528,0.13673359,-0.46372965,0.20614347,-0.15736787,0.059973862,0.07127695,-0.08989371,-0.1631881,-0.18646501,0.056776915,0.46016574,-0.25180098,0.21415061,0.19159314,0.002276147,-0.40756795,-0.09316964,0.23000008,0.09008704,0.045672443,-0.09173186,-0.056955054,0.102877334,-0.198124,-0.10527789,0.13217236,0.15213606,0.09564034,0.2315728,0.23258671,-0.24551132,-0.29925108,0.031673003,-0.12102783,0.01767537,-0.17748743,0.20886491,0.11416078,0.13465327,-0.09014078,-0.15683277,-0.23631425,-0.09616531,0.04614311,0.40782595,-0.29087362,-0.13036941,-0.1836017,0.26638013,0.20791395,0.0026281688,0.21241495,-0.28416273,-0.4578799,0.20004259,0.21187127,0.0028897233
ASN:ASN0130,0.029710209,-0.35630435,0.27117622,-0.10205012,-0.13102287,0.007231882,-0.16602693,0.2044087,-0.30845767,0.35845393,-0.14469402,-0.01162969,0.032704905,0.1414755,-0.36662805,-0.37999973,0.28101322,0.3737882,-0.35948056,0.36682457,0.10736606,-0.10072482,-0.30031854,0.021268412,0.3047543,0.114200614,0.004384064,-0.027928514,0.061237194,-0.14908344,0.03650188,-0.043318305,0.08399578,-0.07704703,0.041541986,-0.22262517,-0.032792255,-0.03645624,-0.3876056,0.07037022,-0.17388895,0.016554492,-0.04138353,0.19708398,0.05235976,-0.12704177,-0.30901927,-0.45410112,-0.20059346,-0.15589978,0.11176965,0.3954638,-0.24519958,-0.26178336,-0.13980639,-0.04909781,0.19754423,-0.15197094,0.15307108,-0.22036673,-0.26459384,0.10701736,0.15373616,-0.12887244
ASN:ASN0131,0.054069087,-0.18647222,0.24554013,-0.2713324,0.10275412,-0.07328662,-0.12022631,0.08119752,-0.13955455,0.2868025,-0.13741548,-0.30326366,0.25204578,-0.09033277,-0.21097736,-0.22679815,0.008800964,0.29961282,-0.36070263,0.40192053,0.383628,-0.010243675,-0.4484713,0.016695332,0.26872993,0.05900296,0.1194953,-0.19614302,0.031998374,0.10175489,-0.100006595,-0.024984159,0.0626827,0.090980165,0.14729522,-0.084573865,0.10261884,-0.17124104,-0.2712777,-0.09252043,-0.10713204,0.0047349,-0.05851148,0.19086619,-0.15068708,-0.040897682,-0.107113175,-0.20807804,0.04117969,-0.256304,0.20509686,0.37040395,-0.064991936,-0.31722373,-0.100239284,-0.06098681,0.29708913,-0.0738033,0.093347035,-0.24940859,-0.41308042,0.13847375,0.17118153,0.0053295954
